=== Run information ===

Scheme:       weka.classifiers.trees.J48 -C 0.25 -M 2
Relation:     Traffic_Crashes-afterGenericPreprocessing
Instances:    464701
Attributes:   26
              CRASH_DATE_EST_I
              POSTED_SPEED_LIMIT
              TRAFFIC_CONTROL_DEVICE
              DEVICE_CONDITION
              WEATHER_CONDITION
              LIGHTING_CONDITION
              FIRST_CRASH_TYPE
              TRAFFICWAY_TYPE
              ALIGNMENT
              ROADWAY_SURFACE_COND
              ROAD_DEFECT
              REPORT_TYPE
              CRASH_TYPE
              INTERSECTION_RELATED_I
              NOT_RIGHT_OF_WAY_I
              HIT_AND_RUN_I
              DAMAGE
              PRIM_CONTRIBUTORY_CAUSE
              DOORING_I
              NUM_UNITS
              MOST_SEVERE_INJURY
              INJURIES_TOTAL
              INJURIES_FATAL
              CRASH_HOUR
              CRASH_DAY_OF_WEEK
              WEEKEND
Test mode:    split 66.0% train, remainder test

=== Classifier model (full training set) ===

J48 pruned tree
------------------

CRASH_DATE_EST_I = N
|   FIRST_CRASH_TYPE = PARKED MOTOR VEHICLE
|   |   INJURIES_TOTAL = 1. 0
|   |   |   PRIM_CONTRIBUTORY_CAUSE = NOT APPLICABLE
|   |   |   |   LIGHTING_CONDITION = DARKNESS
|   |   |   |   |   POSTED_SPEED_LIMIT = 1. 30
|   |   |   |   |   |   TRAFFICWAY_TYPE = OTHER
|   |   |   |   |   |   |   ROADWAY_SURFACE_COND = DRY: Y (12.0/4.0)
|   |   |   |   |   |   |   ROADWAY_SURFACE_COND = WET: Y (0.0)
|   |   |   |   |   |   |   ROADWAY_SURFACE_COND = SNOW OR SLUSH: N (2.0)
|   |   |   |   |   |   |   ROADWAY_SURFACE_COND = UNKNOWN: Y (1.0)
|   |   |   |   |   |   |   ROADWAY_SURFACE_COND = ICE: Y (0.0)
|   |   |   |   |   |   |   ROADWAY_SURFACE_COND = OTHER: Y (0.0)
|   |   |   |   |   |   |   ROADWAY_SURFACE_COND = SAND, MUD, DIRT: Y (0.0)
|   |   |   |   |   |   TRAFFICWAY_TYPE = ONE-WAY
|   |   |   |   |   |   |   ROAD_DEFECT = NO DEFECTS: Y (112.0/25.0)
|   |   |   |   |   |   |   ROAD_DEFECT = UNKNOWN
|   |   |   |   |   |   |   |   DAMAGE = OVER $1,500: Y (12.0/3.0)
|   |   |   |   |   |   |   |   DAMAGE = $501 - $1,500: N (6.0/1.0)
|   |   |   |   |   |   |   |   DAMAGE = $500 OR LESS: Y (0.0)
|   |   |   |   |   |   |   ROAD_DEFECT = RUT, HOLES: N (1.0)
|   |   |   |   |   |   |   ROAD_DEFECT = SHOULDER DEFECT: Y (0.0)
|   |   |   |   |   |   |   ROAD_DEFECT = OTHER: Y (0.0)
|   |   |   |   |   |   |   ROAD_DEFECT = WORN SURFACE: Y (0.0)
|   |   |   |   |   |   |   ROAD_DEFECT = DEBRIS ON ROADWAY: Y (0.0)
|   |   |   |   |   |   TRAFFICWAY_TYPE = NOT DIVIDED
|   |   |   |   |   |   |   CRASH_TYPE = NO INJURY / DRIVE AWAY
|   |   |   |   |   |   |   |   CRASH_HOUR = 3. 17-24
|   |   |   |   |   |   |   |   |   WEATHER_CONDITION = CLEAR
|   |   |   |   |   |   |   |   |   |   REPORT_TYPE = ON SCENE: Y (27.15/7.38)
|   |   |   |   |   |   |   |   |   |   REPORT_TYPE = NOT ON SCENE (DESK REPORT)
|   |   |   |   |   |   |   |   |   |   |   WEEKEND = N
|   |   |   |   |   |   |   |   |   |   |   |   DAMAGE = OVER $1,500: Y (12.0/4.0)
|   |   |   |   |   |   |   |   |   |   |   |   DAMAGE = $501 - $1,500: N (13.0/5.0)
|   |   |   |   |   |   |   |   |   |   |   |   DAMAGE = $500 OR LESS: Y (1.0)
|   |   |   |   |   |   |   |   |   |   |   WEEKEND = Y: N (17.85/5.24)
|   |   |   |   |   |   |   |   |   |   REPORT_TYPE = AMENDED: Y (0.0)
|   |   |   |   |   |   |   |   |   WEATHER_CONDITION = RAIN: Y (8.0/1.0)
|   |   |   |   |   |   |   |   |   WEATHER_CONDITION = CLOUDY/OVERCAST: Y (0.0)
|   |   |   |   |   |   |   |   |   WEATHER_CONDITION = UNKNOWN: Y (8.0/2.0)
|   |   |   |   |   |   |   |   |   WEATHER_CONDITION = SNOW
|   |   |   |   |   |   |   |   |   |   CRASH_DAY_OF_WEEK <= 3: N (3.0)
|   |   |   |   |   |   |   |   |   |   CRASH_DAY_OF_WEEK > 3: Y (3.0/1.0)
|   |   |   |   |   |   |   |   |   WEATHER_CONDITION = SLEET/HAIL: Y (0.0)
|   |   |   |   |   |   |   |   |   WEATHER_CONDITION = FOG/SMOKE/HAZE: Y (0.0)
|   |   |   |   |   |   |   |   |   WEATHER_CONDITION = FREEZING RAIN/DRIZZLE: Y (1.0)
|   |   |   |   |   |   |   |   |   WEATHER_CONDITION = SEVERE CROSS WIND GATE: Y (0.0)
|   |   |   |   |   |   |   |   |   WEATHER_CONDITION = OTHER: Y (1.0)
|   |   |   |   |   |   |   |   |   WEATHER_CONDITION = BLOWING SNOW: Y (0.0)
|   |   |   |   |   |   |   |   |   WEATHER_CONDITION = BLOWING SAND, SOIL, DIRT: Y (0.0)
|   |   |   |   |   |   |   |   CRASH_HOUR = 2. 9-16
|   |   |   |   |   |   |   |   |   CRASH_DAY_OF_WEEK <= 6: Y (5.0)
|   |   |   |   |   |   |   |   |   CRASH_DAY_OF_WEEK > 6: N (2.0)
|   |   |   |   |   |   |   |   CRASH_HOUR = 1. 0-8: Y (45.0/4.0)
|   |   |   |   |   |   |   CRASH_TYPE = INJURY AND / OR TOW DUE TO CRASH
|   |   |   |   |   |   |   |   WEATHER_CONDITION = CLEAR
|   |   |   |   |   |   |   |   |   CRASH_DAY_OF_WEEK <= 4: Y (14.0/5.0)
|   |   |   |   |   |   |   |   |   CRASH_DAY_OF_WEEK > 4: N (9.0/1.0)
|   |   |   |   |   |   |   |   WEATHER_CONDITION = RAIN: N (2.0)
|   |   |   |   |   |   |   |   WEATHER_CONDITION = CLOUDY/OVERCAST: N (0.0)
|   |   |   |   |   |   |   |   WEATHER_CONDITION = UNKNOWN: Y (3.0)
|   |   |   |   |   |   |   |   WEATHER_CONDITION = SNOW: N (0.0)
|   |   |   |   |   |   |   |   WEATHER_CONDITION = SLEET/HAIL: N (0.0)
|   |   |   |   |   |   |   |   WEATHER_CONDITION = FOG/SMOKE/HAZE: N (0.0)
|   |   |   |   |   |   |   |   WEATHER_CONDITION = FREEZING RAIN/DRIZZLE: N (0.0)
|   |   |   |   |   |   |   |   WEATHER_CONDITION = SEVERE CROSS WIND GATE: N (0.0)
|   |   |   |   |   |   |   |   WEATHER_CONDITION = OTHER: N (1.0)
|   |   |   |   |   |   |   |   WEATHER_CONDITION = BLOWING SNOW: N (0.0)
|   |   |   |   |   |   |   |   WEATHER_CONDITION = BLOWING SAND, SOIL, DIRT: N (0.0)
|   |   |   |   |   |   TRAFFICWAY_TYPE = DIVIDED - W/MEDIAN BARRIER: N (2.0)
|   |   |   |   |   |   TRAFFICWAY_TYPE = PARKING LOT
|   |   |   |   |   |   |   CRASH_TYPE = NO INJURY / DRIVE AWAY
|   |   |   |   |   |   |   |   TRAFFIC_CONTROL_DEVICE = NO CONTROLS
|   |   |   |   |   |   |   |   |   ROAD_DEFECT = NO DEFECTS: N (50.0/19.0)
|   |   |   |   |   |   |   |   |   ROAD_DEFECT = UNKNOWN: Y (6.0/2.0)
|   |   |   |   |   |   |   |   |   ROAD_DEFECT = RUT, HOLES: N (0.0)
|   |   |   |   |   |   |   |   |   ROAD_DEFECT = SHOULDER DEFECT: N (0.0)
|   |   |   |   |   |   |   |   |   ROAD_DEFECT = OTHER: N (0.0)
|   |   |   |   |   |   |   |   |   ROAD_DEFECT = WORN SURFACE: N (0.0)
|   |   |   |   |   |   |   |   |   ROAD_DEFECT = DEBRIS ON ROADWAY: N (0.0)
|   |   |   |   |   |   |   |   TRAFFIC_CONTROL_DEVICE = STOP SIGN/FLASHER: N (0.0)
|   |   |   |   |   |   |   |   TRAFFIC_CONTROL_DEVICE = TRAFFIC SIGNAL: N (0.0)
|   |   |   |   |   |   |   |   TRAFFIC_CONTROL_DEVICE = OTHER: Y (1.0)
|   |   |   |   |   |   |   |   TRAFFIC_CONTROL_DEVICE = PEDESTRIAN CROSSING SIGN: N (0.0)
|   |   |   |   |   |   |   |   TRAFFIC_CONTROL_DEVICE = UNKNOWN: Y (3.0/1.0)
|   |   |   |   |   |   |   |   TRAFFIC_CONTROL_DEVICE = YIELD: N (0.0)
|   |   |   |   |   |   |   |   TRAFFIC_CONTROL_DEVICE = OTHER REG. SIGN: N (0.0)
|   |   |   |   |   |   |   |   TRAFFIC_CONTROL_DEVICE = LANE USE MARKING: N (0.0)
|   |   |   |   |   |   |   |   TRAFFIC_CONTROL_DEVICE = FLASHING CONTROL SIGNAL: N (0.0)
|   |   |   |   |   |   |   |   TRAFFIC_CONTROL_DEVICE = OTHER WARNING SIGN: N (0.0)
|   |   |   |   |   |   |   |   TRAFFIC_CONTROL_DEVICE = DELINEATORS: N (0.0)
|   |   |   |   |   |   |   |   TRAFFIC_CONTROL_DEVICE = SCHOOL ZONE: N (0.0)
|   |   |   |   |   |   |   |   TRAFFIC_CONTROL_DEVICE = POLICE/FLAGMAN: N (0.0)
|   |   |   |   |   |   |   |   TRAFFIC_CONTROL_DEVICE = RAILROAD CROSSING GATE: N (0.0)
|   |   |   |   |   |   |   |   TRAFFIC_CONTROL_DEVICE = OTHER RAILROAD CROSSING: N (0.0)
|   |   |   |   |   |   |   |   TRAFFIC_CONTROL_DEVICE = NO PASSING: N (0.0)
|   |   |   |   |   |   |   |   TRAFFIC_CONTROL_DEVICE = RR CROSSING SIGN: N (0.0)
|   |   |   |   |   |   |   |   TRAFFIC_CONTROL_DEVICE = BICYCLE CROSSING SIGN: N (0.0)
|   |   |   |   |   |   |   CRASH_TYPE = INJURY AND / OR TOW DUE TO CRASH: N (2.0)
|   |   |   |   |   |   TRAFFICWAY_TYPE = DIVIDED - W/MEDIAN (NOT RAISED)
|   |   |   |   |   |   |   DEVICE_CONDITION = NO CONTROLS
|   |   |   |   |   |   |   |   CRASH_HOUR = 3. 17-24
|   |   |   |   |   |   |   |   |   ROAD_DEFECT = NO DEFECTS
|   |   |   |   |   |   |   |   |   |   CRASH_DAY_OF_WEEK <= 4: Y (2.0)
|   |   |   |   |   |   |   |   |   |   CRASH_DAY_OF_WEEK > 4: N (8.0/2.0)
|   |   |   |   |   |   |   |   |   ROAD_DEFECT = UNKNOWN: Y (2.0)
|   |   |   |   |   |   |   |   |   ROAD_DEFECT = RUT, HOLES: N (0.0)
|   |   |   |   |   |   |   |   |   ROAD_DEFECT = SHOULDER DEFECT: N (0.0)
|   |   |   |   |   |   |   |   |   ROAD_DEFECT = OTHER: N (0.0)
|   |   |   |   |   |   |   |   |   ROAD_DEFECT = WORN SURFACE: N (0.0)
|   |   |   |   |   |   |   |   |   ROAD_DEFECT = DEBRIS ON ROADWAY: N (0.0)
|   |   |   |   |   |   |   |   CRASH_HOUR = 2. 9-16: Y (3.0/1.0)
|   |   |   |   |   |   |   |   CRASH_HOUR = 1. 0-8: Y (7.0)
|   |   |   |   |   |   |   DEVICE_CONDITION = FUNCTIONING PROPERLY: N (3.0)
|   |   |   |   |   |   |   DEVICE_CONDITION = UNKNOWN: Y (2.0)
|   |   |   |   |   |   |   DEVICE_CONDITION = OTHER: Y (1.0)
|   |   |   |   |   |   |   DEVICE_CONDITION = FUNCTIONING IMPROPERLY: Y (0.0)
|   |   |   |   |   |   |   DEVICE_CONDITION = NOT FUNCTIONING: Y (0.0)
|   |   |   |   |   |   |   DEVICE_CONDITION = WORN REFLECTIVE MATERIAL: Y (0.0)
|   |   |   |   |   |   |   DEVICE_CONDITION = MISSING: Y (0.0)
|   |   |   |   |   |   TRAFFICWAY_TYPE = FOUR WAY: Y (0.0)
|   |   |   |   |   |   TRAFFICWAY_TYPE = UNKNOWN: N (10.0/4.0)
|   |   |   |   |   |   TRAFFICWAY_TYPE = T-INTERSECTION: Y (0.0)
|   |   |   |   |   |   TRAFFICWAY_TYPE = DRIVEWAY: N (2.0)
|   |   |   |   |   |   TRAFFICWAY_TYPE = CENTER TURN LANE: Y (0.0)
|   |   |   |   |   |   TRAFFICWAY_TYPE = ALLEY
|   |   |   |   |   |   |   DAMAGE = OVER $1,500: Y (6.0/1.0)
|   |   |   |   |   |   |   DAMAGE = $501 - $1,500: Y (1.0)
|   |   |   |   |   |   |   DAMAGE = $500 OR LESS: N (2.0)
|   |   |   |   |   |   TRAFFICWAY_TYPE = FIVE POINT, OR MORE: Y (0.0)
|   |   |   |   |   |   TRAFFICWAY_TYPE = RAMP: Y (0.0)
|   |   |   |   |   |   TRAFFICWAY_TYPE = Y-INTERSECTION: Y (0.0)
|   |   |   |   |   |   TRAFFICWAY_TYPE = UNKNOWN INTERSECTION TYPE: Y (0.0)
|   |   |   |   |   |   TRAFFICWAY_TYPE = NOT REPORTED: Y (0.0)
|   |   |   |   |   |   TRAFFICWAY_TYPE = TRAFFIC ROUTE: Y (0.0)
|   |   |   |   |   |   TRAFFICWAY_TYPE = L-INTERSECTION: Y (0.0)
|   |   |   |   |   |   TRAFFICWAY_TYPE = ROUNDABOUT: Y (0.0)
|   |   |   |   |   POSTED_SPEED_LIMIT = 2. 30-60
|   |   |   |   |   |   TRAFFICWAY_TYPE = OTHER: Y (2.0)
|   |   |   |   |   |   TRAFFICWAY_TYPE = ONE-WAY
|   |   |   |   |   |   |   DAMAGE = OVER $1,500: Y (3.0)
|   |   |   |   |   |   |   DAMAGE = $501 - $1,500: Y (3.0)
|   |   |   |   |   |   |   DAMAGE = $500 OR LESS: N (3.0)
|   |   |   |   |   |   TRAFFICWAY_TYPE = NOT DIVIDED: N (20.0/4.0)
|   |   |   |   |   |   TRAFFICWAY_TYPE = DIVIDED - W/MEDIAN BARRIER: N (2.0)
|   |   |   |   |   |   TRAFFICWAY_TYPE = PARKING LOT: Y (5.0/1.0)
|   |   |   |   |   |   TRAFFICWAY_TYPE = DIVIDED - W/MEDIAN (NOT RAISED): N (2.0/1.0)
|   |   |   |   |   |   TRAFFICWAY_TYPE = FOUR WAY: N (0.0)
|   |   |   |   |   |   TRAFFICWAY_TYPE = UNKNOWN: N (2.0/1.0)
|   |   |   |   |   |   TRAFFICWAY_TYPE = T-INTERSECTION: N (0.0)
|   |   |   |   |   |   TRAFFICWAY_TYPE = DRIVEWAY: N (0.0)
|   |   |   |   |   |   TRAFFICWAY_TYPE = CENTER TURN LANE: N (0.0)
|   |   |   |   |   |   TRAFFICWAY_TYPE = ALLEY: N (0.0)
|   |   |   |   |   |   TRAFFICWAY_TYPE = FIVE POINT, OR MORE: N (0.0)
|   |   |   |   |   |   TRAFFICWAY_TYPE = RAMP: N (0.0)
|   |   |   |   |   |   TRAFFICWAY_TYPE = Y-INTERSECTION: N (0.0)
|   |   |   |   |   |   TRAFFICWAY_TYPE = UNKNOWN INTERSECTION TYPE: N (0.0)
|   |   |   |   |   |   TRAFFICWAY_TYPE = NOT REPORTED: N (0.0)
|   |   |   |   |   |   TRAFFICWAY_TYPE = TRAFFIC ROUTE: N (0.0)
|   |   |   |   |   |   TRAFFICWAY_TYPE = L-INTERSECTION: N (0.0)
|   |   |   |   |   |   TRAFFICWAY_TYPE = ROUNDABOUT: N (0.0)
|   |   |   |   |   POSTED_SPEED_LIMIT = 3. 60: Y (0.0)
|   |   |   |   LIGHTING_CONDITION = DAYLIGHT
|   |   |   |   |   INTERSECTION_RELATED_I = N
|   |   |   |   |   |   REPORT_TYPE = ON SCENE
|   |   |   |   |   |   |   WEATHER_CONDITION = CLEAR
|   |   |   |   |   |   |   |   WEEKEND = N: N (895.25/275.96)
|   |   |   |   |   |   |   |   WEEKEND = Y
|   |   |   |   |   |   |   |   |   ROAD_DEFECT = NO DEFECTS
|   |   |   |   |   |   |   |   |   |   CRASH_HOUR = 3. 17-24: N (46.33/20.33)
|   |   |   |   |   |   |   |   |   |   CRASH_HOUR = 2. 9-16
|   |   |   |   |   |   |   |   |   |   |   DAMAGE = OVER $1,500
|   |   |   |   |   |   |   |   |   |   |   |   TRAFFICWAY_TYPE = OTHER
|   |   |   |   |   |   |   |   |   |   |   |   |   CRASH_DAY_OF_WEEK <= 4: N (4.0)
|   |   |   |   |   |   |   |   |   |   |   |   |   CRASH_DAY_OF_WEEK > 4: Y (2.0)
|   |   |   |   |   |   |   |   |   |   |   |   TRAFFICWAY_TYPE = ONE-WAY: Y (23.0/9.0)
|   |   |   |   |   |   |   |   |   |   |   |   TRAFFICWAY_TYPE = NOT DIVIDED: N (42.99/12.33)
|   |   |   |   |   |   |   |   |   |   |   |   TRAFFICWAY_TYPE = DIVIDED - W/MEDIAN BARRIER: N (4.0/1.0)
|   |   |   |   |   |   |   |   |   |   |   |   TRAFFICWAY_TYPE = PARKING LOT
|   |   |   |   |   |   |   |   |   |   |   |   |   CRASH_TYPE = NO INJURY / DRIVE AWAY: Y (12.0/3.0)
|   |   |   |   |   |   |   |   |   |   |   |   |   CRASH_TYPE = INJURY AND / OR TOW DUE TO CRASH: N (2.0)
|   |   |   |   |   |   |   |   |   |   |   |   TRAFFICWAY_TYPE = DIVIDED - W/MEDIAN (NOT RAISED): Y (8.33/3.0)
|   |   |   |   |   |   |   |   |   |   |   |   TRAFFICWAY_TYPE = FOUR WAY: N (0.0)
|   |   |   |   |   |   |   |   |   |   |   |   TRAFFICWAY_TYPE = UNKNOWN: N (2.0/1.0)
|   |   |   |   |   |   |   |   |   |   |   |   TRAFFICWAY_TYPE = T-INTERSECTION: N (0.0)
|   |   |   |   |   |   |   |   |   |   |   |   TRAFFICWAY_TYPE = DRIVEWAY: N (0.0)
|   |   |   |   |   |   |   |   |   |   |   |   TRAFFICWAY_TYPE = CENTER TURN LANE: N (0.0)
|   |   |   |   |   |   |   |   |   |   |   |   TRAFFICWAY_TYPE = ALLEY: N (2.0/1.0)
|   |   |   |   |   |   |   |   |   |   |   |   TRAFFICWAY_TYPE = FIVE POINT, OR MORE: N (0.0)
|   |   |   |   |   |   |   |   |   |   |   |   TRAFFICWAY_TYPE = RAMP: N (0.0)
|   |   |   |   |   |   |   |   |   |   |   |   TRAFFICWAY_TYPE = Y-INTERSECTION: N (0.0)
|   |   |   |   |   |   |   |   |   |   |   |   TRAFFICWAY_TYPE = UNKNOWN INTERSECTION TYPE: N (0.0)
|   |   |   |   |   |   |   |   |   |   |   |   TRAFFICWAY_TYPE = NOT REPORTED: N (0.0)
|   |   |   |   |   |   |   |   |   |   |   |   TRAFFICWAY_TYPE = TRAFFIC ROUTE: N (0.0)
|   |   |   |   |   |   |   |   |   |   |   |   TRAFFICWAY_TYPE = L-INTERSECTION: N (0.0)
|   |   |   |   |   |   |   |   |   |   |   |   TRAFFICWAY_TYPE = ROUNDABOUT: N (0.0)
|   |   |   |   |   |   |   |   |   |   |   DAMAGE = $501 - $1,500
|   |   |   |   |   |   |   |   |   |   |   |   CRASH_DAY_OF_WEEK <= 4: Y (19.66/8.33)
|   |   |   |   |   |   |   |   |   |   |   |   CRASH_DAY_OF_WEEK > 4: N (34.66/9.0)
|   |   |   |   |   |   |   |   |   |   |   DAMAGE = $500 OR LESS: N (40.66/9.33)
|   |   |   |   |   |   |   |   |   |   CRASH_HOUR = 1. 0-8: Y (33.33/10.33)
|   |   |   |   |   |   |   |   |   ROAD_DEFECT = UNKNOWN: Y (27.33/6.33)
|   |   |   |   |   |   |   |   |   ROAD_DEFECT = RUT, HOLES: N (1.0)
|   |   |   |   |   |   |   |   |   ROAD_DEFECT = SHOULDER DEFECT: N (0.0)
|   |   |   |   |   |   |   |   |   ROAD_DEFECT = OTHER: N (2.0/1.0)
|   |   |   |   |   |   |   |   |   ROAD_DEFECT = WORN SURFACE: N (0.0)
|   |   |   |   |   |   |   |   |   ROAD_DEFECT = DEBRIS ON ROADWAY: N (0.0)
|   |   |   |   |   |   |   WEATHER_CONDITION = RAIN: N (87.33/26.99)
|   |   |   |   |   |   |   WEATHER_CONDITION = CLOUDY/OVERCAST: N (60.99/15.33)
|   |   |   |   |   |   |   WEATHER_CONDITION = UNKNOWN: Y (15.33/3.33)
|   |   |   |   |   |   |   WEATHER_CONDITION = SNOW: N (44.33/18.66)
|   |   |   |   |   |   |   WEATHER_CONDITION = SLEET/HAIL: N (1.0)
|   |   |   |   |   |   |   WEATHER_CONDITION = FOG/SMOKE/HAZE: Y (1.0)
|   |   |   |   |   |   |   WEATHER_CONDITION = FREEZING RAIN/DRIZZLE: N (1.0)
|   |   |   |   |   |   |   WEATHER_CONDITION = SEVERE CROSS WIND GATE: N (0.0)
|   |   |   |   |   |   |   WEATHER_CONDITION = OTHER: N (5.0)
|   |   |   |   |   |   |   WEATHER_CONDITION = BLOWING SNOW: N (0.0)
|   |   |   |   |   |   |   WEATHER_CONDITION = BLOWING SAND, SOIL, DIRT: N (0.0)
|   |   |   |   |   |   REPORT_TYPE = NOT ON SCENE (DESK REPORT)
|   |   |   |   |   |   |   DAMAGE = OVER $1,500
|   |   |   |   |   |   |   |   WEATHER_CONDITION = CLEAR
|   |   |   |   |   |   |   |   |   ROADWAY_SURFACE_COND = DRY
|   |   |   |   |   |   |   |   |   |   POSTED_SPEED_LIMIT = 1. 30
|   |   |   |   |   |   |   |   |   |   |   TRAFFICWAY_TYPE = OTHER
|   |   |   |   |   |   |   |   |   |   |   |   CRASH_HOUR = 3. 17-24: Y (7.0)
|   |   |   |   |   |   |   |   |   |   |   |   CRASH_HOUR = 2. 9-16
|   |   |   |   |   |   |   |   |   |   |   |   |   NUM_UNITS = 2 Units: N (19.67/6.0)
|   |   |   |   |   |   |   |   |   |   |   |   |   NUM_UNITS = 1 Unit: N (0.0)
|   |   |   |   |   |   |   |   |   |   |   |   |   NUM_UNITS = 3+ Units: Y (2.0)
|   |   |   |   |   |   |   |   |   |   |   |   CRASH_HOUR = 1. 0-8: Y (5.0/2.0)
|   |   |   |   |   |   |   |   |   |   |   TRAFFICWAY_TYPE = ONE-WAY: Y (199.67/76.0)
|   |   |   |   |   |   |   |   |   |   |   TRAFFICWAY_TYPE = NOT DIVIDED
|   |   |   |   |   |   |   |   |   |   |   |   NUM_UNITS = 2 Units: Y (324.68/143.01)
|   |   |   |   |   |   |   |   |   |   |   |   NUM_UNITS = 1 Unit: Y (0.0)
|   |   |   |   |   |   |   |   |   |   |   |   NUM_UNITS = 3+ Units: N (7.67/2.0)
|   |   |   |   |   |   |   |   |   |   |   TRAFFICWAY_TYPE = DIVIDED - W/MEDIAN BARRIER: N (6.67/2.0)
|   |   |   |   |   |   |   |   |   |   |   TRAFFICWAY_TYPE = PARKING LOT
|   |   |   |   |   |   |   |   |   |   |   |   NUM_UNITS = 2 Units
|   |   |   |   |   |   |   |   |   |   |   |   |   TRAFFIC_CONTROL_DEVICE = NO CONTROLS
|   |   |   |   |   |   |   |   |   |   |   |   |   |   CRASH_HOUR = 3. 17-24: N (30.0/11.0)
|   |   |   |   |   |   |   |   |   |   |   |   |   |   CRASH_HOUR = 2. 9-16: Y (150.67/73.67)
|   |   |   |   |   |   |   |   |   |   |   |   |   |   CRASH_HOUR = 1. 0-8
|   |   |   |   |   |   |   |   |   |   |   |   |   |   |   NOT_RIGHT_OF_WAY_I = N
|   |   |   |   |   |   |   |   |   |   |   |   |   |   |   |   CRASH_DAY_OF_WEEK <= 2: N (4.0/1.0)
|   |   |   |   |   |   |   |   |   |   |   |   |   |   |   |   CRASH_DAY_OF_WEEK > 2
|   |   |   |   |   |   |   |   |   |   |   |   |   |   |   |   |   CRASH_DAY_OF_WEEK <= 5: Y (10.0/1.0)
|   |   |   |   |   |   |   |   |   |   |   |   |   |   |   |   |   CRASH_DAY_OF_WEEK > 5: N (4.0/1.0)
|   |   |   |   |   |   |   |   |   |   |   |   |   |   |   NOT_RIGHT_OF_WAY_I = Y
|   |   |   |   |   |   |   |   |   |   |   |   |   |   |   |   CRASH_DAY_OF_WEEK <= 2: Y (2.0)
|   |   |   |   |   |   |   |   |   |   |   |   |   |   |   |   CRASH_DAY_OF_WEEK > 2: N (6.0/1.0)
|   |   |   |   |   |   |   |   |   |   |   |   |   TRAFFIC_CONTROL_DEVICE = STOP SIGN/FLASHER: N (0.0)
|   |   |   |   |   |   |   |   |   |   |   |   |   TRAFFIC_CONTROL_DEVICE = TRAFFIC SIGNAL: N (2.0)
|   |   |   |   |   |   |   |   |   |   |   |   |   TRAFFIC_CONTROL_DEVICE = OTHER: N (7.0/3.0)
|   |   |   |   |   |   |   |   |   |   |   |   |   TRAFFIC_CONTROL_DEVICE = PEDESTRIAN CROSSING SIGN: N (0.0)
|   |   |   |   |   |   |   |   |   |   |   |   |   TRAFFIC_CONTROL_DEVICE = UNKNOWN: Y (2.0)
|   |   |   |   |   |   |   |   |   |   |   |   |   TRAFFIC_CONTROL_DEVICE = YIELD: N (0.0)
|   |   |   |   |   |   |   |   |   |   |   |   |   TRAFFIC_CONTROL_DEVICE = OTHER REG. SIGN: N (0.0)
|   |   |   |   |   |   |   |   |   |   |   |   |   TRAFFIC_CONTROL_DEVICE = LANE USE MARKING: N (0.0)
|   |   |   |   |   |   |   |   |   |   |   |   |   TRAFFIC_CONTROL_DEVICE = FLASHING CONTROL SIGNAL: N (0.0)
|   |   |   |   |   |   |   |   |   |   |   |   |   TRAFFIC_CONTROL_DEVICE = OTHER WARNING SIGN: N (0.0)
|   |   |   |   |   |   |   |   |   |   |   |   |   TRAFFIC_CONTROL_DEVICE = DELINEATORS: N (0.0)
|   |   |   |   |   |   |   |   |   |   |   |   |   TRAFFIC_CONTROL_DEVICE = SCHOOL ZONE: N (0.0)
|   |   |   |   |   |   |   |   |   |   |   |   |   TRAFFIC_CONTROL_DEVICE = POLICE/FLAGMAN: N (0.0)
|   |   |   |   |   |   |   |   |   |   |   |   |   TRAFFIC_CONTROL_DEVICE = RAILROAD CROSSING GATE: N (0.0)
|   |   |   |   |   |   |   |   |   |   |   |   |   TRAFFIC_CONTROL_DEVICE = OTHER RAILROAD CROSSING: N (0.0)
|   |   |   |   |   |   |   |   |   |   |   |   |   TRAFFIC_CONTROL_DEVICE = NO PASSING: N (0.0)
|   |   |   |   |   |   |   |   |   |   |   |   |   TRAFFIC_CONTROL_DEVICE = RR CROSSING SIGN: N (0.0)
|   |   |   |   |   |   |   |   |   |   |   |   |   TRAFFIC_CONTROL_DEVICE = BICYCLE CROSSING SIGN: N (0.0)
|   |   |   |   |   |   |   |   |   |   |   |   NUM_UNITS = 1 Unit: N (0.0)
|   |   |   |   |   |   |   |   |   |   |   |   NUM_UNITS = 3+ Units: N (3.0)
|   |   |   |   |   |   |   |   |   |   |   TRAFFICWAY_TYPE = DIVIDED - W/MEDIAN (NOT RAISED): N (57.34/20.67)
|   |   |   |   |   |   |   |   |   |   |   TRAFFICWAY_TYPE = FOUR WAY: Y (0.0)
|   |   |   |   |   |   |   |   |   |   |   TRAFFICWAY_TYPE = UNKNOWN: Y (11.67/4.67)
|   |   |   |   |   |   |   |   |   |   |   TRAFFICWAY_TYPE = T-INTERSECTION: Y (0.0)
|   |   |   |   |   |   |   |   |   |   |   TRAFFICWAY_TYPE = DRIVEWAY: N (2.0)
|   |   |   |   |   |   |   |   |   |   |   TRAFFICWAY_TYPE = CENTER TURN LANE: Y (0.0)
|   |   |   |   |   |   |   |   |   |   |   TRAFFICWAY_TYPE = ALLEY
|   |   |   |   |   |   |   |   |   |   |   |   ROAD_DEFECT = NO DEFECTS
|   |   |   |   |   |   |   |   |   |   |   |   |   CRASH_DAY_OF_WEEK <= 6: Y (12.0/3.0)
|   |   |   |   |   |   |   |   |   |   |   |   |   CRASH_DAY_OF_WEEK > 6: N (3.0/1.0)
|   |   |   |   |   |   |   |   |   |   |   |   ROAD_DEFECT = UNKNOWN: N (2.0)
|   |   |   |   |   |   |   |   |   |   |   |   ROAD_DEFECT = RUT, HOLES: Y (0.0)
|   |   |   |   |   |   |   |   |   |   |   |   ROAD_DEFECT = SHOULDER DEFECT: Y (0.0)
|   |   |   |   |   |   |   |   |   |   |   |   ROAD_DEFECT = OTHER: Y (0.0)
|   |   |   |   |   |   |   |   |   |   |   |   ROAD_DEFECT = WORN SURFACE: Y (0.0)
|   |   |   |   |   |   |   |   |   |   |   |   ROAD_DEFECT = DEBRIS ON ROADWAY: Y (0.0)
|   |   |   |   |   |   |   |   |   |   |   TRAFFICWAY_TYPE = FIVE POINT, OR MORE: Y (0.0)
|   |   |   |   |   |   |   |   |   |   |   TRAFFICWAY_TYPE = RAMP: N (1.0)
|   |   |   |   |   |   |   |   |   |   |   TRAFFICWAY_TYPE = Y-INTERSECTION: Y (0.0)
|   |   |   |   |   |   |   |   |   |   |   TRAFFICWAY_TYPE = UNKNOWN INTERSECTION TYPE: Y (1.0)
|   |   |   |   |   |   |   |   |   |   |   TRAFFICWAY_TYPE = NOT REPORTED: Y (0.0)
|   |   |   |   |   |   |   |   |   |   |   TRAFFICWAY_TYPE = TRAFFIC ROUTE: Y (0.0)
|   |   |   |   |   |   |   |   |   |   |   TRAFFICWAY_TYPE = L-INTERSECTION: Y (0.0)
|   |   |   |   |   |   |   |   |   |   |   TRAFFICWAY_TYPE = ROUNDABOUT: Y (0.0)
|   |   |   |   |   |   |   |   |   |   POSTED_SPEED_LIMIT = 2. 30-60: N (65.34/24.67)
|   |   |   |   |   |   |   |   |   |   POSTED_SPEED_LIMIT = 3. 60: Y (1.0)
|   |   |   |   |   |   |   |   |   ROADWAY_SURFACE_COND = WET
|   |   |   |   |   |   |   |   |   |   CRASH_DAY_OF_WEEK <= 2: Y (4.0)
|   |   |   |   |   |   |   |   |   |   CRASH_DAY_OF_WEEK > 2: N (15.0/2.0)
|   |   |   |   |   |   |   |   |   ROADWAY_SURFACE_COND = SNOW OR SLUSH: N (6.0/2.0)
|   |   |   |   |   |   |   |   |   ROADWAY_SURFACE_COND = UNKNOWN
|   |   |   |   |   |   |   |   |   |   TRAFFICWAY_TYPE = OTHER: N (1.0)
|   |   |   |   |   |   |   |   |   |   TRAFFICWAY_TYPE = ONE-WAY: Y (6.0/1.0)
|   |   |   |   |   |   |   |   |   |   TRAFFICWAY_TYPE = NOT DIVIDED: N (5.67/1.0)
|   |   |   |   |   |   |   |   |   |   TRAFFICWAY_TYPE = DIVIDED - W/MEDIAN BARRIER: N (0.0)
|   |   |   |   |   |   |   |   |   |   TRAFFICWAY_TYPE = PARKING LOT: N (8.0/2.0)
|   |   |   |   |   |   |   |   |   |   TRAFFICWAY_TYPE = DIVIDED - W/MEDIAN (NOT RAISED): N (2.0/1.0)
|   |   |   |   |   |   |   |   |   |   TRAFFICWAY_TYPE = FOUR WAY: N (0.0)
|   |   |   |   |   |   |   |   |   |   TRAFFICWAY_TYPE = UNKNOWN: Y (6.0/2.0)
|   |   |   |   |   |   |   |   |   |   TRAFFICWAY_TYPE = T-INTERSECTION: N (0.0)
|   |   |   |   |   |   |   |   |   |   TRAFFICWAY_TYPE = DRIVEWAY: N (0.0)
|   |   |   |   |   |   |   |   |   |   TRAFFICWAY_TYPE = CENTER TURN LANE: N (0.0)
|   |   |   |   |   |   |   |   |   |   TRAFFICWAY_TYPE = ALLEY: N (0.0)
|   |   |   |   |   |   |   |   |   |   TRAFFICWAY_TYPE = FIVE POINT, OR MORE: N (0.0)
|   |   |   |   |   |   |   |   |   |   TRAFFICWAY_TYPE = RAMP: N (0.0)
|   |   |   |   |   |   |   |   |   |   TRAFFICWAY_TYPE = Y-INTERSECTION: N (0.0)
|   |   |   |   |   |   |   |   |   |   TRAFFICWAY_TYPE = UNKNOWN INTERSECTION TYPE: N (0.0)
|   |   |   |   |   |   |   |   |   |   TRAFFICWAY_TYPE = NOT REPORTED: N (0.0)
|   |   |   |   |   |   |   |   |   |   TRAFFICWAY_TYPE = TRAFFIC ROUTE: N (0.0)
|   |   |   |   |   |   |   |   |   |   TRAFFICWAY_TYPE = L-INTERSECTION: N (0.0)
|   |   |   |   |   |   |   |   |   |   TRAFFICWAY_TYPE = ROUNDABOUT: N (0.0)
|   |   |   |   |   |   |   |   |   ROADWAY_SURFACE_COND = ICE: N (4.0/1.0)
|   |   |   |   |   |   |   |   |   ROADWAY_SURFACE_COND = OTHER: N (1.0)
|   |   |   |   |   |   |   |   |   ROADWAY_SURFACE_COND = SAND, MUD, DIRT: Y (0.0)
|   |   |   |   |   |   |   |   WEATHER_CONDITION = RAIN
|   |   |   |   |   |   |   |   |   DEVICE_CONDITION = NO CONTROLS
|   |   |   |   |   |   |   |   |   |   POSTED_SPEED_LIMIT = 1. 30: Y (32.34/8.0)
|   |   |   |   |   |   |   |   |   |   POSTED_SPEED_LIMIT = 2. 30-60: N (6.0/2.0)
|   |   |   |   |   |   |   |   |   |   POSTED_SPEED_LIMIT = 3. 60: Y (0.0)
|   |   |   |   |   |   |   |   |   DEVICE_CONDITION = FUNCTIONING PROPERLY: Y (5.0)
|   |   |   |   |   |   |   |   |   DEVICE_CONDITION = UNKNOWN: N (2.0)
|   |   |   |   |   |   |   |   |   DEVICE_CONDITION = OTHER: Y (0.0)
|   |   |   |   |   |   |   |   |   DEVICE_CONDITION = FUNCTIONING IMPROPERLY: Y (0.0)
|   |   |   |   |   |   |   |   |   DEVICE_CONDITION = NOT FUNCTIONING: Y (0.0)
|   |   |   |   |   |   |   |   |   DEVICE_CONDITION = WORN REFLECTIVE MATERIAL: Y (0.0)
|   |   |   |   |   |   |   |   |   DEVICE_CONDITION = MISSING: Y (0.0)
|   |   |   |   |   |   |   |   WEATHER_CONDITION = CLOUDY/OVERCAST: N (20.34/10.0)
|   |   |   |   |   |   |   |   WEATHER_CONDITION = UNKNOWN: Y (41.67/11.0)
|   |   |   |   |   |   |   |   WEATHER_CONDITION = SNOW
|   |   |   |   |   |   |   |   |   CRASH_HOUR = 3. 17-24: Y (0.0)
|   |   |   |   |   |   |   |   |   CRASH_HOUR = 2. 9-16
|   |   |   |   |   |   |   |   |   |   TRAFFICWAY_TYPE = OTHER: Y (1.0)
|   |   |   |   |   |   |   |   |   |   TRAFFICWAY_TYPE = ONE-WAY
|   |   |   |   |   |   |   |   |   |   |   CRASH_DAY_OF_WEEK <= 1: N (3.0/1.0)
|   |   |   |   |   |   |   |   |   |   |   CRASH_DAY_OF_WEEK > 1: Y (3.0)
|   |   |   |   |   |   |   |   |   |   TRAFFICWAY_TYPE = NOT DIVIDED: N (7.67/1.0)
|   |   |   |   |   |   |   |   |   |   TRAFFICWAY_TYPE = DIVIDED - W/MEDIAN BARRIER: N (0.0)
|   |   |   |   |   |   |   |   |   |   TRAFFICWAY_TYPE = PARKING LOT: Y (3.0/1.0)
|   |   |   |   |   |   |   |   |   |   TRAFFICWAY_TYPE = DIVIDED - W/MEDIAN (NOT RAISED): N (1.0)
|   |   |   |   |   |   |   |   |   |   TRAFFICWAY_TYPE = FOUR WAY: N (0.0)
|   |   |   |   |   |   |   |   |   |   TRAFFICWAY_TYPE = UNKNOWN: N (1.0)
|   |   |   |   |   |   |   |   |   |   TRAFFICWAY_TYPE = T-INTERSECTION: N (0.0)
|   |   |   |   |   |   |   |   |   |   TRAFFICWAY_TYPE = DRIVEWAY: N (0.0)
|   |   |   |   |   |   |   |   |   |   TRAFFICWAY_TYPE = CENTER TURN LANE: N (0.0)
|   |   |   |   |   |   |   |   |   |   TRAFFICWAY_TYPE = ALLEY: N (0.0)
|   |   |   |   |   |   |   |   |   |   TRAFFICWAY_TYPE = FIVE POINT, OR MORE: N (0.0)
|   |   |   |   |   |   |   |   |   |   TRAFFICWAY_TYPE = RAMP: N (0.0)
|   |   |   |   |   |   |   |   |   |   TRAFFICWAY_TYPE = Y-INTERSECTION: N (0.0)
|   |   |   |   |   |   |   |   |   |   TRAFFICWAY_TYPE = UNKNOWN INTERSECTION TYPE: N (0.0)
|   |   |   |   |   |   |   |   |   |   TRAFFICWAY_TYPE = NOT REPORTED: N (0.0)
|   |   |   |   |   |   |   |   |   |   TRAFFICWAY_TYPE = TRAFFIC ROUTE: N (0.0)
|   |   |   |   |   |   |   |   |   |   TRAFFICWAY_TYPE = L-INTERSECTION: N (0.0)
|   |   |   |   |   |   |   |   |   |   TRAFFICWAY_TYPE = ROUNDABOUT: N (0.0)
|   |   |   |   |   |   |   |   |   CRASH_HOUR = 1. 0-8: Y (6.67/0.67)
|   |   |   |   |   |   |   |   WEATHER_CONDITION = SLEET/HAIL: N (1.0)
|   |   |   |   |   |   |   |   WEATHER_CONDITION = FOG/SMOKE/HAZE: N (1.0)
|   |   |   |   |   |   |   |   WEATHER_CONDITION = FREEZING RAIN/DRIZZLE: Y (0.0)
|   |   |   |   |   |   |   |   WEATHER_CONDITION = SEVERE CROSS WIND GATE: Y (1.0)
|   |   |   |   |   |   |   |   WEATHER_CONDITION = OTHER: N (2.0/1.0)
|   |   |   |   |   |   |   |   WEATHER_CONDITION = BLOWING SNOW: Y (0.0)
|   |   |   |   |   |   |   |   WEATHER_CONDITION = BLOWING SAND, SOIL, DIRT: Y (0.0)
|   |   |   |   |   |   |   DAMAGE = $501 - $1,500
|   |   |   |   |   |   |   |   TRAFFIC_CONTROL_DEVICE = NO CONTROLS
|   |   |   |   |   |   |   |   |   NOT_RIGHT_OF_WAY_I = N
|   |   |   |   |   |   |   |   |   |   CRASH_HOUR = 3. 17-24
|   |   |   |   |   |   |   |   |   |   |   NUM_UNITS = 2 Units
|   |   |   |   |   |   |   |   |   |   |   |   TRAFFICWAY_TYPE = OTHER: N (5.0/2.0)
|   |   |   |   |   |   |   |   |   |   |   |   TRAFFICWAY_TYPE = ONE-WAY: Y (44.67/14.0)
|   |   |   |   |   |   |   |   |   |   |   |   TRAFFICWAY_TYPE = NOT DIVIDED
|   |   |   |   |   |   |   |   |   |   |   |   |   WEEKEND = N
|   |   |   |   |   |   |   |   |   |   |   |   |   |   CRASH_DAY_OF_WEEK <= 3: N (19.0/6.0)
|   |   |   |   |   |   |   |   |   |   |   |   |   |   CRASH_DAY_OF_WEEK > 3: Y (27.67/10.0)
|   |   |   |   |   |   |   |   |   |   |   |   |   WEEKEND = Y: Y (22.0/7.0)
|   |   |   |   |   |   |   |   |   |   |   |   TRAFFICWAY_TYPE = DIVIDED - W/MEDIAN BARRIER: Y (1.0)
|   |   |   |   |   |   |   |   |   |   |   |   TRAFFICWAY_TYPE = PARKING LOT: Y (21.0/9.0)
|   |   |   |   |   |   |   |   |   |   |   |   TRAFFICWAY_TYPE = DIVIDED - W/MEDIAN (NOT RAISED): N (8.0/2.0)
|   |   |   |   |   |   |   |   |   |   |   |   TRAFFICWAY_TYPE = FOUR WAY: Y (0.0)
|   |   |   |   |   |   |   |   |   |   |   |   TRAFFICWAY_TYPE = UNKNOWN: Y (4.0/1.0)
|   |   |   |   |   |   |   |   |   |   |   |   TRAFFICWAY_TYPE = T-INTERSECTION: Y (0.0)
|   |   |   |   |   |   |   |   |   |   |   |   TRAFFICWAY_TYPE = DRIVEWAY: Y (0.0)
|   |   |   |   |   |   |   |   |   |   |   |   TRAFFICWAY_TYPE = CENTER TURN LANE: Y (0.0)
|   |   |   |   |   |   |   |   |   |   |   |   TRAFFICWAY_TYPE = ALLEY: N (5.0/1.0)
|   |   |   |   |   |   |   |   |   |   |   |   TRAFFICWAY_TYPE = FIVE POINT, OR MORE: Y (0.0)
|   |   |   |   |   |   |   |   |   |   |   |   TRAFFICWAY_TYPE = RAMP: Y (0.0)
|   |   |   |   |   |   |   |   |   |   |   |   TRAFFICWAY_TYPE = Y-INTERSECTION: Y (0.0)
|   |   |   |   |   |   |   |   |   |   |   |   TRAFFICWAY_TYPE = UNKNOWN INTERSECTION TYPE: Y (0.0)
|   |   |   |   |   |   |   |   |   |   |   |   TRAFFICWAY_TYPE = NOT REPORTED: Y (0.0)
|   |   |   |   |   |   |   |   |   |   |   |   TRAFFICWAY_TYPE = TRAFFIC ROUTE: Y (0.0)
|   |   |   |   |   |   |   |   |   |   |   |   TRAFFICWAY_TYPE = L-INTERSECTION: Y (0.0)
|   |   |   |   |   |   |   |   |   |   |   |   TRAFFICWAY_TYPE = ROUNDABOUT: Y (0.0)
|   |   |   |   |   |   |   |   |   |   |   NUM_UNITS = 1 Unit: Y (0.0)
|   |   |   |   |   |   |   |   |   |   |   NUM_UNITS = 3+ Units: N (7.0/1.0)
|   |   |   |   |   |   |   |   |   |   CRASH_HOUR = 2. 9-16
|   |   |   |   |   |   |   |   |   |   |   POSTED_SPEED_LIMIT = 1. 30
|   |   |   |   |   |   |   |   |   |   |   |   TRAFFICWAY_TYPE = OTHER
|   |   |   |   |   |   |   |   |   |   |   |   |   CRASH_DAY_OF_WEEK <= 5
|   |   |   |   |   |   |   |   |   |   |   |   |   |   CRASH_DAY_OF_WEEK <= 3: N (6.0/2.0)
|   |   |   |   |   |   |   |   |   |   |   |   |   |   CRASH_DAY_OF_WEEK > 3: Y (2.0)
|   |   |   |   |   |   |   |   |   |   |   |   |   CRASH_DAY_OF_WEEK > 5: N (3.0/1.0)
|   |   |   |   |   |   |   |   |   |   |   |   TRAFFICWAY_TYPE = ONE-WAY: Y (240.34/79.0)
|   |   |   |   |   |   |   |   |   |   |   |   TRAFFICWAY_TYPE = NOT DIVIDED
|   |   |   |   |   |   |   |   |   |   |   |   |   CRASH_DAY_OF_WEEK <= 3
|   |   |   |   |   |   |   |   |   |   |   |   |   |   CRASH_DAY_OF_WEEK <= 2: Y (99.01/39.67)
|   |   |   |   |   |   |   |   |   |   |   |   |   |   CRASH_DAY_OF_WEEK > 2: N (48.67/18.0)
|   |   |   |   |   |   |   |   |   |   |   |   |   CRASH_DAY_OF_WEEK > 3: Y (191.01/75.34)
|   |   |   |   |   |   |   |   |   |   |   |   TRAFFICWAY_TYPE = DIVIDED - W/MEDIAN BARRIER: N (5.0/1.0)
|   |   |   |   |   |   |   |   |   |   |   |   TRAFFICWAY_TYPE = PARKING LOT
|   |   |   |   |   |   |   |   |   |   |   |   |   WEEKEND = N: Y (101.67/41.0)
|   |   |   |   |   |   |   |   |   |   |   |   |   WEEKEND = Y
|   |   |   |   |   |   |   |   |   |   |   |   |   |   CRASH_DAY_OF_WEEK <= 4: Y (13.67/5.0)
|   |   |   |   |   |   |   |   |   |   |   |   |   |   CRASH_DAY_OF_WEEK > 4: N (20.67/6.0)
|   |   |   |   |   |   |   |   |   |   |   |   TRAFFICWAY_TYPE = DIVIDED - W/MEDIAN (NOT RAISED)
|   |   |   |   |   |   |   |   |   |   |   |   |   ROAD_DEFECT = NO DEFECTS
|   |   |   |   |   |   |   |   |   |   |   |   |   |   CRASH_DAY_OF_WEEK <= 3: Y (17.0/5.0)
|   |   |   |   |   |   |   |   |   |   |   |   |   |   CRASH_DAY_OF_WEEK > 3: N (19.67/7.0)
|   |   |   |   |   |   |   |   |   |   |   |   |   ROAD_DEFECT = UNKNOWN: Y (2.0)
|   |   |   |   |   |   |   |   |   |   |   |   |   ROAD_DEFECT = RUT, HOLES: Y (0.0)
|   |   |   |   |   |   |   |   |   |   |   |   |   ROAD_DEFECT = SHOULDER DEFECT: Y (0.0)
|   |   |   |   |   |   |   |   |   |   |   |   |   ROAD_DEFECT = OTHER: Y (0.0)
|   |   |   |   |   |   |   |   |   |   |   |   |   ROAD_DEFECT = WORN SURFACE: Y (0.0)
|   |   |   |   |   |   |   |   |   |   |   |   |   ROAD_DEFECT = DEBRIS ON ROADWAY: Y (0.0)
|   |   |   |   |   |   |   |   |   |   |   |   TRAFFICWAY_TYPE = FOUR WAY: Y (0.0)
|   |   |   |   |   |   |   |   |   |   |   |   TRAFFICWAY_TYPE = UNKNOWN: Y (11.0/2.0)
|   |   |   |   |   |   |   |   |   |   |   |   TRAFFICWAY_TYPE = T-INTERSECTION: Y (0.0)
|   |   |   |   |   |   |   |   |   |   |   |   TRAFFICWAY_TYPE = DRIVEWAY: N (2.0/1.0)
|   |   |   |   |   |   |   |   |   |   |   |   TRAFFICWAY_TYPE = CENTER TURN LANE: Y (1.0)
|   |   |   |   |   |   |   |   |   |   |   |   TRAFFICWAY_TYPE = ALLEY: N (16.0/6.0)
|   |   |   |   |   |   |   |   |   |   |   |   TRAFFICWAY_TYPE = FIVE POINT, OR MORE: Y (0.0)
|   |   |   |   |   |   |   |   |   |   |   |   TRAFFICWAY_TYPE = RAMP: N (1.0)
|   |   |   |   |   |   |   |   |   |   |   |   TRAFFICWAY_TYPE = Y-INTERSECTION: Y (0.0)
|   |   |   |   |   |   |   |   |   |   |   |   TRAFFICWAY_TYPE = UNKNOWN INTERSECTION TYPE: Y (0.0)
|   |   |   |   |   |   |   |   |   |   |   |   TRAFFICWAY_TYPE = NOT REPORTED: Y (0.0)
|   |   |   |   |   |   |   |   |   |   |   |   TRAFFICWAY_TYPE = TRAFFIC ROUTE: Y (0.0)
|   |   |   |   |   |   |   |   |   |   |   |   TRAFFICWAY_TYPE = L-INTERSECTION: Y (0.0)
|   |   |   |   |   |   |   |   |   |   |   |   TRAFFICWAY_TYPE = ROUNDABOUT: Y (0.0)
|   |   |   |   |   |   |   |   |   |   |   POSTED_SPEED_LIMIT = 2. 30-60: N (13.0/4.0)
|   |   |   |   |   |   |   |   |   |   |   POSTED_SPEED_LIMIT = 3. 60: Y (0.0)
|   |   |   |   |   |   |   |   |   |   CRASH_HOUR = 1. 0-8: Y (188.34/49.67)
|   |   |   |   |   |   |   |   |   NOT_RIGHT_OF_WAY_I = Y
|   |   |   |   |   |   |   |   |   |   TRAFFICWAY_TYPE = OTHER: N (3.0)
|   |   |   |   |   |   |   |   |   |   TRAFFICWAY_TYPE = ONE-WAY: N (0.0)
|   |   |   |   |   |   |   |   |   |   TRAFFICWAY_TYPE = NOT DIVIDED: N (2.0/1.0)
|   |   |   |   |   |   |   |   |   |   TRAFFICWAY_TYPE = DIVIDED - W/MEDIAN BARRIER: N (0.0)
|   |   |   |   |   |   |   |   |   |   TRAFFICWAY_TYPE = PARKING LOT
|   |   |   |   |   |   |   |   |   |   |   ROADWAY_SURFACE_COND = DRY
|   |   |   |   |   |   |   |   |   |   |   |   ROAD_DEFECT = NO DEFECTS
|   |   |   |   |   |   |   |   |   |   |   |   |   CRASH_HOUR = 3. 17-24: Y (15.34/6.67)
|   |   |   |   |   |   |   |   |   |   |   |   |   CRASH_HOUR = 2. 9-16
|   |   |   |   |   |   |   |   |   |   |   |   |   |   CRASH_DAY_OF_WEEK <= 3: N (37.0/10.0)
|   |   |   |   |   |   |   |   |   |   |   |   |   |   CRASH_DAY_OF_WEEK > 3: Y (55.67/25.0)
|   |   |   |   |   |   |   |   |   |   |   |   |   CRASH_HOUR = 1. 0-8: N (6.0/2.0)
|   |   |   |   |   |   |   |   |   |   |   |   ROAD_DEFECT = UNKNOWN: Y (4.0/1.0)
|   |   |   |   |   |   |   |   |   |   |   |   ROAD_DEFECT = RUT, HOLES: N (0.0)
|   |   |   |   |   |   |   |   |   |   |   |   ROAD_DEFECT = SHOULDER DEFECT: N (0.0)
|   |   |   |   |   |   |   |   |   |   |   |   ROAD_DEFECT = OTHER: N (0.0)
|   |   |   |   |   |   |   |   |   |   |   |   ROAD_DEFECT = WORN SURFACE: N (0.0)
|   |   |   |   |   |   |   |   |   |   |   |   ROAD_DEFECT = DEBRIS ON ROADWAY: N (0.0)
|   |   |   |   |   |   |   |   |   |   |   ROADWAY_SURFACE_COND = WET
|   |   |   |   |   |   |   |   |   |   |   |   WEEKEND = N: N (6.0/2.0)
|   |   |   |   |   |   |   |   |   |   |   |   WEEKEND = Y: Y (2.0)
|   |   |   |   |   |   |   |   |   |   |   ROADWAY_SURFACE_COND = SNOW OR SLUSH: Y (2.0)
|   |   |   |   |   |   |   |   |   |   |   ROADWAY_SURFACE_COND = UNKNOWN: Y (2.0)
|   |   |   |   |   |   |   |   |   |   |   ROADWAY_SURFACE_COND = ICE: N (0.0)
|   |   |   |   |   |   |   |   |   |   |   ROADWAY_SURFACE_COND = OTHER: N (0.0)
|   |   |   |   |   |   |   |   |   |   |   ROADWAY_SURFACE_COND = SAND, MUD, DIRT: N (0.0)
|   |   |   |   |   |   |   |   |   |   TRAFFICWAY_TYPE = DIVIDED - W/MEDIAN (NOT RAISED): N (1.67)
|   |   |   |   |   |   |   |   |   |   TRAFFICWAY_TYPE = FOUR WAY: N (0.0)
|   |   |   |   |   |   |   |   |   |   TRAFFICWAY_TYPE = UNKNOWN: N (0.0)
|   |   |   |   |   |   |   |   |   |   TRAFFICWAY_TYPE = T-INTERSECTION: N (0.0)
|   |   |   |   |   |   |   |   |   |   TRAFFICWAY_TYPE = DRIVEWAY: N (0.0)
|   |   |   |   |   |   |   |   |   |   TRAFFICWAY_TYPE = CENTER TURN LANE: N (2.0/1.0)
|   |   |   |   |   |   |   |   |   |   TRAFFICWAY_TYPE = ALLEY: N (0.0)
|   |   |   |   |   |   |   |   |   |   TRAFFICWAY_TYPE = FIVE POINT, OR MORE: N (0.0)
|   |   |   |   |   |   |   |   |   |   TRAFFICWAY_TYPE = RAMP: N (0.0)
|   |   |   |   |   |   |   |   |   |   TRAFFICWAY_TYPE = Y-INTERSECTION: N (0.0)
|   |   |   |   |   |   |   |   |   |   TRAFFICWAY_TYPE = UNKNOWN INTERSECTION TYPE: N (0.0)
|   |   |   |   |   |   |   |   |   |   TRAFFICWAY_TYPE = NOT REPORTED: N (0.0)
|   |   |   |   |   |   |   |   |   |   TRAFFICWAY_TYPE = TRAFFIC ROUTE: N (0.0)
|   |   |   |   |   |   |   |   |   |   TRAFFICWAY_TYPE = L-INTERSECTION: N (0.0)
|   |   |   |   |   |   |   |   |   |   TRAFFICWAY_TYPE = ROUNDABOUT: N (0.0)
|   |   |   |   |   |   |   |   TRAFFIC_CONTROL_DEVICE = STOP SIGN/FLASHER
|   |   |   |   |   |   |   |   |   CRASH_DAY_OF_WEEK <= 2: Y (4.0/1.0)
|   |   |   |   |   |   |   |   |   CRASH_DAY_OF_WEEK > 2: N (9.67/3.67)
|   |   |   |   |   |   |   |   TRAFFIC_CONTROL_DEVICE = TRAFFIC SIGNAL: N (8.0/2.0)
|   |   |   |   |   |   |   |   TRAFFIC_CONTROL_DEVICE = OTHER: Y (3.0)
|   |   |   |   |   |   |   |   TRAFFIC_CONTROL_DEVICE = PEDESTRIAN CROSSING SIGN: Y (0.0)
|   |   |   |   |   |   |   |   TRAFFIC_CONTROL_DEVICE = UNKNOWN
|   |   |   |   |   |   |   |   |   WEATHER_CONDITION = CLEAR
|   |   |   |   |   |   |   |   |   |   DEVICE_CONDITION = NO CONTROLS: Y (2.0)
|   |   |   |   |   |   |   |   |   |   DEVICE_CONDITION = FUNCTIONING PROPERLY: N (0.0)
|   |   |   |   |   |   |   |   |   |   DEVICE_CONDITION = UNKNOWN
|   |   |   |   |   |   |   |   |   |   |   CRASH_HOUR = 3. 17-24: Y (4.0/1.0)
|   |   |   |   |   |   |   |   |   |   |   CRASH_HOUR = 2. 9-16: N (16.0/5.0)
|   |   |   |   |   |   |   |   |   |   |   CRASH_HOUR = 1. 0-8: Y (2.0)
|   |   |   |   |   |   |   |   |   |   DEVICE_CONDITION = OTHER: N (0.0)
|   |   |   |   |   |   |   |   |   |   DEVICE_CONDITION = FUNCTIONING IMPROPERLY: N (0.0)
|   |   |   |   |   |   |   |   |   |   DEVICE_CONDITION = NOT FUNCTIONING: N (0.0)
|   |   |   |   |   |   |   |   |   |   DEVICE_CONDITION = WORN REFLECTIVE MATERIAL: N (0.0)
|   |   |   |   |   |   |   |   |   |   DEVICE_CONDITION = MISSING: N (0.0)
|   |   |   |   |   |   |   |   |   WEATHER_CONDITION = RAIN: Y (0.0)
|   |   |   |   |   |   |   |   |   WEATHER_CONDITION = CLOUDY/OVERCAST: Y (0.0)
|   |   |   |   |   |   |   |   |   WEATHER_CONDITION = UNKNOWN: Y (7.0/1.0)
|   |   |   |   |   |   |   |   |   WEATHER_CONDITION = SNOW: Y (2.67)
|   |   |   |   |   |   |   |   |   WEATHER_CONDITION = SLEET/HAIL: Y (0.0)
|   |   |   |   |   |   |   |   |   WEATHER_CONDITION = FOG/SMOKE/HAZE: Y (0.0)
|   |   |   |   |   |   |   |   |   WEATHER_CONDITION = FREEZING RAIN/DRIZZLE: Y (0.0)
|   |   |   |   |   |   |   |   |   WEATHER_CONDITION = SEVERE CROSS WIND GATE: Y (0.0)
|   |   |   |   |   |   |   |   |   WEATHER_CONDITION = OTHER: Y (0.0)
|   |   |   |   |   |   |   |   |   WEATHER_CONDITION = BLOWING SNOW: Y (0.0)
|   |   |   |   |   |   |   |   |   WEATHER_CONDITION = BLOWING SAND, SOIL, DIRT: Y (0.0)
|   |   |   |   |   |   |   |   TRAFFIC_CONTROL_DEVICE = YIELD: Y (0.0)
|   |   |   |   |   |   |   |   TRAFFIC_CONTROL_DEVICE = OTHER REG. SIGN: Y (0.0)
|   |   |   |   |   |   |   |   TRAFFIC_CONTROL_DEVICE = LANE USE MARKING: Y (0.0)
|   |   |   |   |   |   |   |   TRAFFIC_CONTROL_DEVICE = FLASHING CONTROL SIGNAL: Y (0.0)
|   |   |   |   |   |   |   |   TRAFFIC_CONTROL_DEVICE = OTHER WARNING SIGN: Y (0.0)
|   |   |   |   |   |   |   |   TRAFFIC_CONTROL_DEVICE = DELINEATORS: Y (1.0)
|   |   |   |   |   |   |   |   TRAFFIC_CONTROL_DEVICE = SCHOOL ZONE: N (1.0)
|   |   |   |   |   |   |   |   TRAFFIC_CONTROL_DEVICE = POLICE/FLAGMAN: Y (0.0)
|   |   |   |   |   |   |   |   TRAFFIC_CONTROL_DEVICE = RAILROAD CROSSING GATE: Y (1.0)
|   |   |   |   |   |   |   |   TRAFFIC_CONTROL_DEVICE = OTHER RAILROAD CROSSING: Y (0.0)
|   |   |   |   |   |   |   |   TRAFFIC_CONTROL_DEVICE = NO PASSING: Y (0.0)
|   |   |   |   |   |   |   |   TRAFFIC_CONTROL_DEVICE = RR CROSSING SIGN: Y (0.0)
|   |   |   |   |   |   |   |   TRAFFIC_CONTROL_DEVICE = BICYCLE CROSSING SIGN: Y (0.0)
|   |   |   |   |   |   |   DAMAGE = $500 OR LESS: N (343.34/127.34)
|   |   |   |   |   |   REPORT_TYPE = AMENDED: N (3.05/0.02)
|   |   |   |   |   INTERSECTION_RELATED_I = Y: N (52.0/6.0)
|   |   |   |   LIGHTING_CONDITION = DARKNESS, LIGHTED ROAD
|   |   |   |   |   REPORT_TYPE = ON SCENE
|   |   |   |   |   |   WEATHER_CONDITION = CLEAR
|   |   |   |   |   |   |   INTERSECTION_RELATED_I = N
|   |   |   |   |   |   |   |   TRAFFIC_CONTROL_DEVICE = NO CONTROLS
|   |   |   |   |   |   |   |   |   DEVICE_CONDITION = NO CONTROLS
|   |   |   |   |   |   |   |   |   |   DAMAGE = OVER $1,500
|   |   |   |   |   |   |   |   |   |   |   POSTED_SPEED_LIMIT = 1. 30: Y (239.42/93.08)
|   |   |   |   |   |   |   |   |   |   |   POSTED_SPEED_LIMIT = 2. 30-60
|   |   |   |   |   |   |   |   |   |   |   |   ROAD_DEFECT = NO DEFECTS: N (12.0/3.0)
|   |   |   |   |   |   |   |   |   |   |   |   ROAD_DEFECT = UNKNOWN: Y (2.0)
|   |   |   |   |   |   |   |   |   |   |   |   ROAD_DEFECT = RUT, HOLES: N (0.0)
|   |   |   |   |   |   |   |   |   |   |   |   ROAD_DEFECT = SHOULDER DEFECT: N (0.0)
|   |   |   |   |   |   |   |   |   |   |   |   ROAD_DEFECT = OTHER: N (1.0)
|   |   |   |   |   |   |   |   |   |   |   |   ROAD_DEFECT = WORN SURFACE: N (0.0)
|   |   |   |   |   |   |   |   |   |   |   |   ROAD_DEFECT = DEBRIS ON ROADWAY: N (0.0)
|   |   |   |   |   |   |   |   |   |   |   POSTED_SPEED_LIMIT = 3. 60: Y (0.0)
|   |   |   |   |   |   |   |   |   |   DAMAGE = $501 - $1,500: Y (116.71/49.0)
|   |   |   |   |   |   |   |   |   |   DAMAGE = $500 OR LESS: N (69.17/23.63)
|   |   |   |   |   |   |   |   |   DEVICE_CONDITION = FUNCTIONING PROPERLY: N (2.0)
|   |   |   |   |   |   |   |   |   DEVICE_CONDITION = UNKNOWN: Y (14.0/4.0)
|   |   |   |   |   |   |   |   |   DEVICE_CONDITION = OTHER: N (2.0)
|   |   |   |   |   |   |   |   |   DEVICE_CONDITION = FUNCTIONING IMPROPERLY: Y (0.0)
|   |   |   |   |   |   |   |   |   DEVICE_CONDITION = NOT FUNCTIONING: N (1.0)
|   |   |   |   |   |   |   |   |   DEVICE_CONDITION = WORN REFLECTIVE MATERIAL: Y (0.0)
|   |   |   |   |   |   |   |   |   DEVICE_CONDITION = MISSING: Y (0.0)
|   |   |   |   |   |   |   |   TRAFFIC_CONTROL_DEVICE = STOP SIGN/FLASHER
|   |   |   |   |   |   |   |   |   DAMAGE = OVER $1,500
|   |   |   |   |   |   |   |   |   |   CRASH_DAY_OF_WEEK <= 4: N (3.0)
|   |   |   |   |   |   |   |   |   |   CRASH_DAY_OF_WEEK > 4: Y (9.0/2.0)
|   |   |   |   |   |   |   |   |   DAMAGE = $501 - $1,500: N (1.0)
|   |   |   |   |   |   |   |   |   DAMAGE = $500 OR LESS: N (4.0)
|   |   |   |   |   |   |   |   TRAFFIC_CONTROL_DEVICE = TRAFFIC SIGNAL
|   |   |   |   |   |   |   |   |   TRAFFICWAY_TYPE = OTHER: N (0.0)
|   |   |   |   |   |   |   |   |   TRAFFICWAY_TYPE = ONE-WAY: N (0.0)
|   |   |   |   |   |   |   |   |   TRAFFICWAY_TYPE = NOT DIVIDED
|   |   |   |   |   |   |   |   |   |   CRASH_DAY_OF_WEEK <= 5: N (3.0/1.0)
|   |   |   |   |   |   |   |   |   |   CRASH_DAY_OF_WEEK > 5: Y (4.0/1.0)
|   |   |   |   |   |   |   |   |   TRAFFICWAY_TYPE = DIVIDED - W/MEDIAN BARRIER: N (0.0)
|   |   |   |   |   |   |   |   |   TRAFFICWAY_TYPE = PARKING LOT: N (0.0)
|   |   |   |   |   |   |   |   |   TRAFFICWAY_TYPE = DIVIDED - W/MEDIAN (NOT RAISED): N (4.0/1.0)
|   |   |   |   |   |   |   |   |   TRAFFICWAY_TYPE = FOUR WAY: N (0.0)
|   |   |   |   |   |   |   |   |   TRAFFICWAY_TYPE = UNKNOWN: N (0.0)
|   |   |   |   |   |   |   |   |   TRAFFICWAY_TYPE = T-INTERSECTION: N (0.0)
|   |   |   |   |   |   |   |   |   TRAFFICWAY_TYPE = DRIVEWAY: N (0.0)
|   |   |   |   |   |   |   |   |   TRAFFICWAY_TYPE = CENTER TURN LANE: N (0.0)
|   |   |   |   |   |   |   |   |   TRAFFICWAY_TYPE = ALLEY: N (0.0)
|   |   |   |   |   |   |   |   |   TRAFFICWAY_TYPE = FIVE POINT, OR MORE: N (0.0)
|   |   |   |   |   |   |   |   |   TRAFFICWAY_TYPE = RAMP: N (0.0)
|   |   |   |   |   |   |   |   |   TRAFFICWAY_TYPE = Y-INTERSECTION: N (0.0)
|   |   |   |   |   |   |   |   |   TRAFFICWAY_TYPE = UNKNOWN INTERSECTION TYPE: N (0.0)
|   |   |   |   |   |   |   |   |   TRAFFICWAY_TYPE = NOT REPORTED: N (0.0)
|   |   |   |   |   |   |   |   |   TRAFFICWAY_TYPE = TRAFFIC ROUTE: N (0.0)
|   |   |   |   |   |   |   |   |   TRAFFICWAY_TYPE = L-INTERSECTION: N (0.0)
|   |   |   |   |   |   |   |   |   TRAFFICWAY_TYPE = ROUNDABOUT: N (0.0)
|   |   |   |   |   |   |   |   TRAFFIC_CONTROL_DEVICE = OTHER: Y (2.0)
|   |   |   |   |   |   |   |   TRAFFIC_CONTROL_DEVICE = PEDESTRIAN CROSSING SIGN: Y (0.0)
|   |   |   |   |   |   |   |   TRAFFIC_CONTROL_DEVICE = UNKNOWN: Y (20.63/5.54)
|   |   |   |   |   |   |   |   TRAFFIC_CONTROL_DEVICE = YIELD: Y (0.0)
|   |   |   |   |   |   |   |   TRAFFIC_CONTROL_DEVICE = OTHER REG. SIGN: Y (0.0)
|   |   |   |   |   |   |   |   TRAFFIC_CONTROL_DEVICE = LANE USE MARKING: N (1.0)
|   |   |   |   |   |   |   |   TRAFFIC_CONTROL_DEVICE = FLASHING CONTROL SIGNAL: Y (0.0)
|   |   |   |   |   |   |   |   TRAFFIC_CONTROL_DEVICE = OTHER WARNING SIGN: Y (0.0)
|   |   |   |   |   |   |   |   TRAFFIC_CONTROL_DEVICE = DELINEATORS: N (1.0)
|   |   |   |   |   |   |   |   TRAFFIC_CONTROL_DEVICE = SCHOOL ZONE: Y (0.0)
|   |   |   |   |   |   |   |   TRAFFIC_CONTROL_DEVICE = POLICE/FLAGMAN: Y (0.0)
|   |   |   |   |   |   |   |   TRAFFIC_CONTROL_DEVICE = RAILROAD CROSSING GATE: Y (0.0)
|   |   |   |   |   |   |   |   TRAFFIC_CONTROL_DEVICE = OTHER RAILROAD CROSSING: Y (0.0)
|   |   |   |   |   |   |   |   TRAFFIC_CONTROL_DEVICE = NO PASSING: Y (0.0)
|   |   |   |   |   |   |   |   TRAFFIC_CONTROL_DEVICE = RR CROSSING SIGN: Y (0.0)
|   |   |   |   |   |   |   |   TRAFFIC_CONTROL_DEVICE = BICYCLE CROSSING SIGN: Y (0.0)
|   |   |   |   |   |   |   INTERSECTION_RELATED_I = Y: N (6.0/1.0)
|   |   |   |   |   |   WEATHER_CONDITION = RAIN
|   |   |   |   |   |   |   ROAD_DEFECT = NO DEFECTS: Y (54.08/18.0)
|   |   |   |   |   |   |   ROAD_DEFECT = UNKNOWN: N (6.0/1.0)
|   |   |   |   |   |   |   ROAD_DEFECT = RUT, HOLES: Y (0.0)
|   |   |   |   |   |   |   ROAD_DEFECT = SHOULDER DEFECT: Y (0.0)
|   |   |   |   |   |   |   ROAD_DEFECT = OTHER: Y (1.0)
|   |   |   |   |   |   |   ROAD_DEFECT = WORN SURFACE: Y (1.0)
|   |   |   |   |   |   |   ROAD_DEFECT = DEBRIS ON ROADWAY: Y (0.0)
|   |   |   |   |   |   WEATHER_CONDITION = CLOUDY/OVERCAST
|   |   |   |   |   |   |   CRASH_DAY_OF_WEEK <= 2: Y (3.0)
|   |   |   |   |   |   |   CRASH_DAY_OF_WEEK > 2: N (5.0)
|   |   |   |   |   |   WEATHER_CONDITION = UNKNOWN: Y (20.0/5.0)
|   |   |   |   |   |   WEATHER_CONDITION = SNOW: Y (29.63/9.0)
|   |   |   |   |   |   WEATHER_CONDITION = SLEET/HAIL: Y (1.0)
|   |   |   |   |   |   WEATHER_CONDITION = FOG/SMOKE/HAZE: Y (3.0)
|   |   |   |   |   |   WEATHER_CONDITION = FREEZING RAIN/DRIZZLE: Y (0.0)
|   |   |   |   |   |   WEATHER_CONDITION = SEVERE CROSS WIND GATE: Y (0.0)
|   |   |   |   |   |   WEATHER_CONDITION = OTHER: Y (6.0/2.0)
|   |   |   |   |   |   WEATHER_CONDITION = BLOWING SNOW: Y (0.0)
|   |   |   |   |   |   WEATHER_CONDITION = BLOWING SAND, SOIL, DIRT: Y (0.0)
|   |   |   |   |   REPORT_TYPE = NOT ON SCENE (DESK REPORT)
|   |   |   |   |   |   NOT_RIGHT_OF_WAY_I = N: Y (527.35/156.83)
|   |   |   |   |   |   NOT_RIGHT_OF_WAY_I = Y
|   |   |   |   |   |   |   WEEKEND = N: Y (13.0/5.0)
|   |   |   |   |   |   |   WEEKEND = Y: N (6.0/1.0)
|   |   |   |   |   REPORT_TYPE = AMENDED: Y (0.0)
|   |   |   |   LIGHTING_CONDITION = DAWN
|   |   |   |   |   DEVICE_CONDITION = NO CONTROLS: Y (125.0/46.0)
|   |   |   |   |   DEVICE_CONDITION = FUNCTIONING PROPERLY: N (5.0/1.0)
|   |   |   |   |   DEVICE_CONDITION = UNKNOWN: N (4.0/1.0)
|   |   |   |   |   DEVICE_CONDITION = OTHER: N (1.0)
|   |   |   |   |   DEVICE_CONDITION = FUNCTIONING IMPROPERLY: N (1.0)
|   |   |   |   |   DEVICE_CONDITION = NOT FUNCTIONING: N (1.0)
|   |   |   |   |   DEVICE_CONDITION = WORN REFLECTIVE MATERIAL: Y (0.0)
|   |   |   |   |   DEVICE_CONDITION = MISSING: Y (0.0)
|   |   |   |   LIGHTING_CONDITION = DUSK
|   |   |   |   |   NOT_RIGHT_OF_WAY_I = N
|   |   |   |   |   |   WEATHER_CONDITION = CLEAR: Y (228.0/84.0)
|   |   |   |   |   |   WEATHER_CONDITION = RAIN: Y (23.0/9.0)
|   |   |   |   |   |   WEATHER_CONDITION = CLOUDY/OVERCAST: N (5.0/1.0)
|   |   |   |   |   |   WEATHER_CONDITION = UNKNOWN: Y (7.0/2.0)
|   |   |   |   |   |   WEATHER_CONDITION = SNOW
|   |   |   |   |   |   |   CRASH_HOUR = 3. 17-24
|   |   |   |   |   |   |   |   REPORT_TYPE = ON SCENE: Y (3.0)
|   |   |   |   |   |   |   |   REPORT_TYPE = NOT ON SCENE (DESK REPORT): N (4.0/1.0)
|   |   |   |   |   |   |   |   REPORT_TYPE = AMENDED: Y (0.0)
|   |   |   |   |   |   |   CRASH_HOUR = 2. 9-16: N (5.0)
|   |   |   |   |   |   |   CRASH_HOUR = 1. 0-8: N (1.0)
|   |   |   |   |   |   WEATHER_CONDITION = SLEET/HAIL: Y (0.0)
|   |   |   |   |   |   WEATHER_CONDITION = FOG/SMOKE/HAZE: Y (1.0)
|   |   |   |   |   |   WEATHER_CONDITION = FREEZING RAIN/DRIZZLE: N (2.0)
|   |   |   |   |   |   WEATHER_CONDITION = SEVERE CROSS WIND GATE: Y (0.0)
|   |   |   |   |   |   WEATHER_CONDITION = OTHER: Y (0.0)
|   |   |   |   |   |   WEATHER_CONDITION = BLOWING SNOW: Y (0.0)
|   |   |   |   |   |   WEATHER_CONDITION = BLOWING SAND, SOIL, DIRT: Y (0.0)
|   |   |   |   |   NOT_RIGHT_OF_WAY_I = Y
|   |   |   |   |   |   WEEKEND = N: N (12.0/2.0)
|   |   |   |   |   |   WEEKEND = Y: Y (6.0/2.0)
|   |   |   |   LIGHTING_CONDITION = UNKNOWN: Y (502.0/123.0)
|   |   |   PRIM_CONTRIBUTORY_CAUSE = UNABLE TO DETERMINE
|   |   |   |   LIGHTING_CONDITION = DARKNESS
|   |   |   |   |   NOT_RIGHT_OF_WAY_I = N
|   |   |   |   |   |   INTERSECTION_RELATED_I = N: Y (3198.0/897.0)
|   |   |   |   |   |   INTERSECTION_RELATED_I = Y: N (20.0/6.0)
|   |   |   |   |   NOT_RIGHT_OF_WAY_I = Y
|   |   |   |   |   |   TRAFFICWAY_TYPE = OTHER
|   |   |   |   |   |   |   DAMAGE = OVER $1,500
|   |   |   |   |   |   |   |   WEEKEND = N: Y (3.0)
|   |   |   |   |   |   |   |   WEEKEND = Y: N (4.0/1.0)
|   |   |   |   |   |   |   DAMAGE = $501 - $1,500: N (4.0)
|   |   |   |   |   |   |   DAMAGE = $500 OR LESS: Y (3.0/1.0)
|   |   |   |   |   |   TRAFFICWAY_TYPE = ONE-WAY: Y (5.0/1.0)
|   |   |   |   |   |   TRAFFICWAY_TYPE = NOT DIVIDED: Y (7.0/1.0)
|   |   |   |   |   |   TRAFFICWAY_TYPE = DIVIDED - W/MEDIAN BARRIER: Y (0.0)
|   |   |   |   |   |   TRAFFICWAY_TYPE = PARKING LOT
|   |   |   |   |   |   |   ROAD_DEFECT = NO DEFECTS
|   |   |   |   |   |   |   |   ALIGNMENT = STRAIGHT AND LEVEL
|   |   |   |   |   |   |   |   |   CRASH_DAY_OF_WEEK <= 6
|   |   |   |   |   |   |   |   |   |   REPORT_TYPE = ON SCENE: Y (29.29/12.0)
|   |   |   |   |   |   |   |   |   |   REPORT_TYPE = NOT ON SCENE (DESK REPORT)
|   |   |   |   |   |   |   |   |   |   |   CRASH_DAY_OF_WEEK <= 4: N (50.71/20.71)
|   |   |   |   |   |   |   |   |   |   |   CRASH_DAY_OF_WEEK > 4: Y (21.0/4.0)
|   |   |   |   |   |   |   |   |   |   REPORT_TYPE = AMENDED: Y (0.0)
|   |   |   |   |   |   |   |   |   CRASH_DAY_OF_WEEK > 6: N (16.0/3.0)
|   |   |   |   |   |   |   |   ALIGNMENT = STRAIGHT ON GRADE: N (2.0)
|   |   |   |   |   |   |   |   ALIGNMENT = CURVE, LEVEL: N (0.0)
|   |   |   |   |   |   |   |   ALIGNMENT = CURVE ON GRADE: N (0.0)
|   |   |   |   |   |   |   |   ALIGNMENT = STRAIGHT ON HILLCREST: N (0.0)
|   |   |   |   |   |   |   |   ALIGNMENT = CURVE ON HILLCREST: N (0.0)
|   |   |   |   |   |   |   ROAD_DEFECT = UNKNOWN
|   |   |   |   |   |   |   |   NUM_UNITS = 2 Units
|   |   |   |   |   |   |   |   |   CRASH_DAY_OF_WEEK <= 4
|   |   |   |   |   |   |   |   |   |   DAMAGE = OVER $1,500: Y (10.0/2.0)
|   |   |   |   |   |   |   |   |   |   DAMAGE = $501 - $1,500: N (9.0/2.0)
|   |   |   |   |   |   |   |   |   |   DAMAGE = $500 OR LESS: N (3.0/1.0)
|   |   |   |   |   |   |   |   |   CRASH_DAY_OF_WEEK > 4: Y (11.0/3.0)
|   |   |   |   |   |   |   |   NUM_UNITS = 1 Unit: Y (0.0)
|   |   |   |   |   |   |   |   NUM_UNITS = 3+ Units: Y (2.0)
|   |   |   |   |   |   |   ROAD_DEFECT = RUT, HOLES: N (1.0)
|   |   |   |   |   |   |   ROAD_DEFECT = SHOULDER DEFECT: Y (0.0)
|   |   |   |   |   |   |   ROAD_DEFECT = OTHER: N (1.0)
|   |   |   |   |   |   |   ROAD_DEFECT = WORN SURFACE: Y (1.0)
|   |   |   |   |   |   |   ROAD_DEFECT = DEBRIS ON ROADWAY: Y (0.0)
|   |   |   |   |   |   TRAFFICWAY_TYPE = DIVIDED - W/MEDIAN (NOT RAISED): N (2.0/1.0)
|   |   |   |   |   |   TRAFFICWAY_TYPE = FOUR WAY: Y (0.0)
|   |   |   |   |   |   TRAFFICWAY_TYPE = UNKNOWN: N (1.0)
|   |   |   |   |   |   TRAFFICWAY_TYPE = T-INTERSECTION: Y (0.0)
|   |   |   |   |   |   TRAFFICWAY_TYPE = DRIVEWAY: N (2.0/1.0)
|   |   |   |   |   |   TRAFFICWAY_TYPE = CENTER TURN LANE: Y (0.0)
|   |   |   |   |   |   TRAFFICWAY_TYPE = ALLEY
|   |   |   |   |   |   |   WEEKEND = N: N (3.0/1.0)
|   |   |   |   |   |   |   WEEKEND = Y: Y (4.0/1.0)
|   |   |   |   |   |   TRAFFICWAY_TYPE = FIVE POINT, OR MORE: Y (0.0)
|   |   |   |   |   |   TRAFFICWAY_TYPE = RAMP: Y (0.0)
|   |   |   |   |   |   TRAFFICWAY_TYPE = Y-INTERSECTION: Y (0.0)
|   |   |   |   |   |   TRAFFICWAY_TYPE = UNKNOWN INTERSECTION TYPE: Y (0.0)
|   |   |   |   |   |   TRAFFICWAY_TYPE = NOT REPORTED: Y (0.0)
|   |   |   |   |   |   TRAFFICWAY_TYPE = TRAFFIC ROUTE: Y (0.0)
|   |   |   |   |   |   TRAFFICWAY_TYPE = L-INTERSECTION: Y (0.0)
|   |   |   |   |   |   TRAFFICWAY_TYPE = ROUNDABOUT: Y (0.0)
|   |   |   |   LIGHTING_CONDITION = DAYLIGHT
|   |   |   |   |   INTERSECTION_RELATED_I = N
|   |   |   |   |   |   NOT_RIGHT_OF_WAY_I = N
|   |   |   |   |   |   |   DAMAGE = OVER $1,500
|   |   |   |   |   |   |   |   TRAFFICWAY_TYPE = OTHER
|   |   |   |   |   |   |   |   |   TRAFFIC_CONTROL_DEVICE = NO CONTROLS
|   |   |   |   |   |   |   |   |   |   DEVICE_CONDITION = NO CONTROLS
|   |   |   |   |   |   |   |   |   |   |   WEATHER_CONDITION = CLEAR
|   |   |   |   |   |   |   |   |   |   |   |   ROADWAY_SURFACE_COND = DRY
|   |   |   |   |   |   |   |   |   |   |   |   |   POSTED_SPEED_LIMIT = 1. 30
|   |   |   |   |   |   |   |   |   |   |   |   |   |   ROAD_DEFECT = NO DEFECTS
|   |   |   |   |   |   |   |   |   |   |   |   |   |   |   CRASH_DAY_OF_WEEK <= 1: Y (21.0/5.0)
|   |   |   |   |   |   |   |   |   |   |   |   |   |   |   CRASH_DAY_OF_WEEK > 1
|   |   |   |   |   |   |   |   |   |   |   |   |   |   |   |   CRASH_HOUR = 3. 17-24
|   |   |   |   |   |   |   |   |   |   |   |   |   |   |   |   |   CRASH_DAY_OF_WEEK <= 4: N (11.0/2.0)
|   |   |   |   |   |   |   |   |   |   |   |   |   |   |   |   |   CRASH_DAY_OF_WEEK > 4: Y (6.0/1.0)
|   |   |   |   |   |   |   |   |   |   |   |   |   |   |   |   CRASH_HOUR = 2. 9-16: N (85.0/32.0)
|   |   |   |   |   |   |   |   |   |   |   |   |   |   |   |   CRASH_HOUR = 1. 0-8
|   |   |   |   |   |   |   |   |   |   |   |   |   |   |   |   |   REPORT_TYPE = ON SCENE: Y (9.0/3.0)
|   |   |   |   |   |   |   |   |   |   |   |   |   |   |   |   |   REPORT_TYPE = NOT ON SCENE (DESK REPORT)
|   |   |   |   |   |   |   |   |   |   |   |   |   |   |   |   |   |   CRASH_DAY_OF_WEEK <= 3: Y (5.0/1.0)
|   |   |   |   |   |   |   |   |   |   |   |   |   |   |   |   |   |   CRASH_DAY_OF_WEEK > 3
|   |   |   |   |   |   |   |   |   |   |   |   |   |   |   |   |   |   |   CRASH_DAY_OF_WEEK <= 5: N (4.0)
|   |   |   |   |   |   |   |   |   |   |   |   |   |   |   |   |   |   |   CRASH_DAY_OF_WEEK > 5: Y (6.0/2.0)
|   |   |   |   |   |   |   |   |   |   |   |   |   |   |   |   |   REPORT_TYPE = AMENDED: Y (0.0)
|   |   |   |   |   |   |   |   |   |   |   |   |   |   ROAD_DEFECT = UNKNOWN
|   |   |   |   |   |   |   |   |   |   |   |   |   |   |   REPORT_TYPE = ON SCENE: N (4.0/1.0)
|   |   |   |   |   |   |   |   |   |   |   |   |   |   |   REPORT_TYPE = NOT ON SCENE (DESK REPORT): Y (15.0/5.0)
|   |   |   |   |   |   |   |   |   |   |   |   |   |   |   REPORT_TYPE = AMENDED: Y (0.0)
|   |   |   |   |   |   |   |   |   |   |   |   |   |   ROAD_DEFECT = RUT, HOLES: N (2.0/1.0)
|   |   |   |   |   |   |   |   |   |   |   |   |   |   ROAD_DEFECT = SHOULDER DEFECT: Y (1.0)
|   |   |   |   |   |   |   |   |   |   |   |   |   |   ROAD_DEFECT = OTHER: Y (1.0)
|   |   |   |   |   |   |   |   |   |   |   |   |   |   ROAD_DEFECT = WORN SURFACE: N (0.0)
|   |   |   |   |   |   |   |   |   |   |   |   |   |   ROAD_DEFECT = DEBRIS ON ROADWAY: N (0.0)
|   |   |   |   |   |   |   |   |   |   |   |   |   POSTED_SPEED_LIMIT = 2. 30-60
|   |   |   |   |   |   |   |   |   |   |   |   |   |   CRASH_DAY_OF_WEEK <= 2: Y (4.0)
|   |   |   |   |   |   |   |   |   |   |   |   |   |   CRASH_DAY_OF_WEEK > 2
|   |   |   |   |   |   |   |   |   |   |   |   |   |   |   CRASH_DAY_OF_WEEK <= 5: N (5.0/1.0)
|   |   |   |   |   |   |   |   |   |   |   |   |   |   |   CRASH_DAY_OF_WEEK > 5: Y (4.0)
|   |   |   |   |   |   |   |   |   |   |   |   |   POSTED_SPEED_LIMIT = 3. 60: Y (0.0)
|   |   |   |   |   |   |   |   |   |   |   |   ROADWAY_SURFACE_COND = WET
|   |   |   |   |   |   |   |   |   |   |   |   |   CRASH_DAY_OF_WEEK <= 5: N (3.0)
|   |   |   |   |   |   |   |   |   |   |   |   |   CRASH_DAY_OF_WEEK > 5: Y (3.0)
|   |   |   |   |   |   |   |   |   |   |   |   ROADWAY_SURFACE_COND = SNOW OR SLUSH: Y (2.0)
|   |   |   |   |   |   |   |   |   |   |   |   ROADWAY_SURFACE_COND = UNKNOWN
|   |   |   |   |   |   |   |   |   |   |   |   |   REPORT_TYPE = ON SCENE: N (2.29)
|   |   |   |   |   |   |   |   |   |   |   |   |   REPORT_TYPE = NOT ON SCENE (DESK REPORT)
|   |   |   |   |   |   |   |   |   |   |   |   |   |   CRASH_DAY_OF_WEEK <= 2: Y (2.0)
|   |   |   |   |   |   |   |   |   |   |   |   |   |   CRASH_DAY_OF_WEEK > 2: N (3.71/1.0)
|   |   |   |   |   |   |   |   |   |   |   |   |   REPORT_TYPE = AMENDED: N (0.0)
|   |   |   |   |   |   |   |   |   |   |   |   ROADWAY_SURFACE_COND = ICE: N (1.0)
|   |   |   |   |   |   |   |   |   |   |   |   ROADWAY_SURFACE_COND = OTHER: Y (0.0)
|   |   |   |   |   |   |   |   |   |   |   |   ROADWAY_SURFACE_COND = SAND, MUD, DIRT: Y (1.0)
|   |   |   |   |   |   |   |   |   |   |   WEATHER_CONDITION = RAIN: Y (9.0/4.0)
|   |   |   |   |   |   |   |   |   |   |   WEATHER_CONDITION = CLOUDY/OVERCAST: N (4.0/1.0)
|   |   |   |   |   |   |   |   |   |   |   WEATHER_CONDITION = UNKNOWN: Y (4.0)
|   |   |   |   |   |   |   |   |   |   |   WEATHER_CONDITION = SNOW
|   |   |   |   |   |   |   |   |   |   |   |   ROADWAY_SURFACE_COND = DRY: Y (0.0)
|   |   |   |   |   |   |   |   |   |   |   |   ROADWAY_SURFACE_COND = WET: Y (0.0)
|   |   |   |   |   |   |   |   |   |   |   |   ROADWAY_SURFACE_COND = SNOW OR SLUSH: N (3.0/1.0)
|   |   |   |   |   |   |   |   |   |   |   |   ROADWAY_SURFACE_COND = UNKNOWN: Y (0.0)
|   |   |   |   |   |   |   |   |   |   |   |   ROADWAY_SURFACE_COND = ICE: Y (2.0)
|   |   |   |   |   |   |   |   |   |   |   |   ROADWAY_SURFACE_COND = OTHER: Y (0.0)
|   |   |   |   |   |   |   |   |   |   |   |   ROADWAY_SURFACE_COND = SAND, MUD, DIRT: Y (0.0)
|   |   |   |   |   |   |   |   |   |   |   WEATHER_CONDITION = SLEET/HAIL: Y (0.0)
|   |   |   |   |   |   |   |   |   |   |   WEATHER_CONDITION = FOG/SMOKE/HAZE: Y (0.0)
|   |   |   |   |   |   |   |   |   |   |   WEATHER_CONDITION = FREEZING RAIN/DRIZZLE: Y (0.0)
|   |   |   |   |   |   |   |   |   |   |   WEATHER_CONDITION = SEVERE CROSS WIND GATE: Y (0.0)
|   |   |   |   |   |   |   |   |   |   |   WEATHER_CONDITION = OTHER: Y (0.0)
|   |   |   |   |   |   |   |   |   |   |   WEATHER_CONDITION = BLOWING SNOW: Y (0.0)
|   |   |   |   |   |   |   |   |   |   |   WEATHER_CONDITION = BLOWING SAND, SOIL, DIRT: Y (0.0)
|   |   |   |   |   |   |   |   |   |   DEVICE_CONDITION = FUNCTIONING PROPERLY: Y (0.0)
|   |   |   |   |   |   |   |   |   |   DEVICE_CONDITION = UNKNOWN: Y (3.0)
|   |   |   |   |   |   |   |   |   |   DEVICE_CONDITION = OTHER: Y (1.0)
|   |   |   |   |   |   |   |   |   |   DEVICE_CONDITION = FUNCTIONING IMPROPERLY: Y (0.0)
|   |   |   |   |   |   |   |   |   |   DEVICE_CONDITION = NOT FUNCTIONING: N (2.0/1.0)
|   |   |   |   |   |   |   |   |   |   DEVICE_CONDITION = WORN REFLECTIVE MATERIAL: Y (0.0)
|   |   |   |   |   |   |   |   |   |   DEVICE_CONDITION = MISSING: Y (0.0)
|   |   |   |   |   |   |   |   |   TRAFFIC_CONTROL_DEVICE = STOP SIGN/FLASHER: N (3.0/1.0)
|   |   |   |   |   |   |   |   |   TRAFFIC_CONTROL_DEVICE = TRAFFIC SIGNAL: N (3.0)
|   |   |   |   |   |   |   |   |   TRAFFIC_CONTROL_DEVICE = OTHER: N (5.0/1.0)
|   |   |   |   |   |   |   |   |   TRAFFIC_CONTROL_DEVICE = PEDESTRIAN CROSSING SIGN: Y (0.0)
|   |   |   |   |   |   |   |   |   TRAFFIC_CONTROL_DEVICE = UNKNOWN
|   |   |   |   |   |   |   |   |   |   CRASH_DAY_OF_WEEK <= 6
|   |   |   |   |   |   |   |   |   |   |   ROAD_DEFECT = NO DEFECTS: N (2.0)
|   |   |   |   |   |   |   |   |   |   |   ROAD_DEFECT = UNKNOWN: Y (3.0/1.0)
|   |   |   |   |   |   |   |   |   |   |   ROAD_DEFECT = RUT, HOLES: N (0.0)
|   |   |   |   |   |   |   |   |   |   |   ROAD_DEFECT = SHOULDER DEFECT: N (0.0)
|   |   |   |   |   |   |   |   |   |   |   ROAD_DEFECT = OTHER: N (0.0)
|   |   |   |   |   |   |   |   |   |   |   ROAD_DEFECT = WORN SURFACE: N (0.0)
|   |   |   |   |   |   |   |   |   |   |   ROAD_DEFECT = DEBRIS ON ROADWAY: N (0.0)
|   |   |   |   |   |   |   |   |   |   CRASH_DAY_OF_WEEK > 6: Y (4.0)
|   |   |   |   |   |   |   |   |   TRAFFIC_CONTROL_DEVICE = YIELD: Y (0.0)
|   |   |   |   |   |   |   |   |   TRAFFIC_CONTROL_DEVICE = OTHER REG. SIGN: N (2.0/1.0)
|   |   |   |   |   |   |   |   |   TRAFFIC_CONTROL_DEVICE = LANE USE MARKING: Y (0.0)
|   |   |   |   |   |   |   |   |   TRAFFIC_CONTROL_DEVICE = FLASHING CONTROL SIGNAL: Y (0.0)
|   |   |   |   |   |   |   |   |   TRAFFIC_CONTROL_DEVICE = OTHER WARNING SIGN: Y (0.0)
|   |   |   |   |   |   |   |   |   TRAFFIC_CONTROL_DEVICE = DELINEATORS: Y (0.0)
|   |   |   |   |   |   |   |   |   TRAFFIC_CONTROL_DEVICE = SCHOOL ZONE: Y (0.0)
|   |   |   |   |   |   |   |   |   TRAFFIC_CONTROL_DEVICE = POLICE/FLAGMAN: Y (0.0)
|   |   |   |   |   |   |   |   |   TRAFFIC_CONTROL_DEVICE = RAILROAD CROSSING GATE: Y (0.0)
|   |   |   |   |   |   |   |   |   TRAFFIC_CONTROL_DEVICE = OTHER RAILROAD CROSSING: Y (0.0)
|   |   |   |   |   |   |   |   |   TRAFFIC_CONTROL_DEVICE = NO PASSING: Y (0.0)
|   |   |   |   |   |   |   |   |   TRAFFIC_CONTROL_DEVICE = RR CROSSING SIGN: Y (0.0)
|   |   |   |   |   |   |   |   |   TRAFFIC_CONTROL_DEVICE = BICYCLE CROSSING SIGN: Y (0.0)
|   |   |   |   |   |   |   |   TRAFFICWAY_TYPE = ONE-WAY
|   |   |   |   |   |   |   |   |   POSTED_SPEED_LIMIT = 1. 30
|   |   |   |   |   |   |   |   |   |   DEVICE_CONDITION = NO CONTROLS: Y (3284.0/987.0)
|   |   |   |   |   |   |   |   |   |   DEVICE_CONDITION = FUNCTIONING PROPERLY
|   |   |   |   |   |   |   |   |   |   |   REPORT_TYPE = ON SCENE
|   |   |   |   |   |   |   |   |   |   |   |   CRASH_HOUR = 3. 17-24: Y (13.58/6.0)
|   |   |   |   |   |   |   |   |   |   |   |   CRASH_HOUR = 2. 9-16
|   |   |   |   |   |   |   |   |   |   |   |   |   WEEKEND = N
|   |   |   |   |   |   |   |   |   |   |   |   |   |   CRASH_DAY_OF_WEEK <= 3: Y (23.0/8.0)
|   |   |   |   |   |   |   |   |   |   |   |   |   |   CRASH_DAY_OF_WEEK > 3: N (17.0/6.0)
|   |   |   |   |   |   |   |   |   |   |   |   |   WEEKEND = Y: Y (21.0/6.0)
|   |   |   |   |   |   |   |   |   |   |   |   CRASH_HOUR = 1. 0-8: N (14.0/2.0)
|   |   |   |   |   |   |   |   |   |   |   REPORT_TYPE = NOT ON SCENE (DESK REPORT)
|   |   |   |   |   |   |   |   |   |   |   |   TRAFFIC_CONTROL_DEVICE = NO CONTROLS: Y (5.0/2.0)
|   |   |   |   |   |   |   |   |   |   |   |   TRAFFIC_CONTROL_DEVICE = STOP SIGN/FLASHER: Y (42.42/10.0)
|   |   |   |   |   |   |   |   |   |   |   |   TRAFFIC_CONTROL_DEVICE = TRAFFIC SIGNAL
|   |   |   |   |   |   |   |   |   |   |   |   |   CRASH_HOUR = 3. 17-24: Y (1.0)
|   |   |   |   |   |   |   |   |   |   |   |   |   CRASH_HOUR = 2. 9-16: N (12.0/4.0)
|   |   |   |   |   |   |   |   |   |   |   |   |   CRASH_HOUR = 1. 0-8: Y (2.0)
|   |   |   |   |   |   |   |   |   |   |   |   TRAFFIC_CONTROL_DEVICE = OTHER: Y (0.0)
|   |   |   |   |   |   |   |   |   |   |   |   TRAFFIC_CONTROL_DEVICE = PEDESTRIAN CROSSING SIGN: Y (0.0)
|   |   |   |   |   |   |   |   |   |   |   |   TRAFFIC_CONTROL_DEVICE = UNKNOWN: Y (0.0)
|   |   |   |   |   |   |   |   |   |   |   |   TRAFFIC_CONTROL_DEVICE = YIELD: Y (0.0)
|   |   |   |   |   |   |   |   |   |   |   |   TRAFFIC_CONTROL_DEVICE = OTHER REG. SIGN: Y (0.0)
|   |   |   |   |   |   |   |   |   |   |   |   TRAFFIC_CONTROL_DEVICE = LANE USE MARKING: Y (0.0)
|   |   |   |   |   |   |   |   |   |   |   |   TRAFFIC_CONTROL_DEVICE = FLASHING CONTROL SIGNAL: Y (0.0)
|   |   |   |   |   |   |   |   |   |   |   |   TRAFFIC_CONTROL_DEVICE = OTHER WARNING SIGN: Y (0.0)
|   |   |   |   |   |   |   |   |   |   |   |   TRAFFIC_CONTROL_DEVICE = DELINEATORS: Y (0.0)
|   |   |   |   |   |   |   |   |   |   |   |   TRAFFIC_CONTROL_DEVICE = SCHOOL ZONE: N (1.0)
|   |   |   |   |   |   |   |   |   |   |   |   TRAFFIC_CONTROL_DEVICE = POLICE/FLAGMAN: Y (0.0)
|   |   |   |   |   |   |   |   |   |   |   |   TRAFFIC_CONTROL_DEVICE = RAILROAD CROSSING GATE: Y (0.0)
|   |   |   |   |   |   |   |   |   |   |   |   TRAFFIC_CONTROL_DEVICE = OTHER RAILROAD CROSSING: Y (0.0)
|   |   |   |   |   |   |   |   |   |   |   |   TRAFFIC_CONTROL_DEVICE = NO PASSING: Y (0.0)
|   |   |   |   |   |   |   |   |   |   |   |   TRAFFIC_CONTROL_DEVICE = RR CROSSING SIGN: Y (0.0)
|   |   |   |   |   |   |   |   |   |   |   |   TRAFFIC_CONTROL_DEVICE = BICYCLE CROSSING SIGN: Y (0.0)
|   |   |   |   |   |   |   |   |   |   |   REPORT_TYPE = AMENDED: Y (0.0)
|   |   |   |   |   |   |   |   |   |   DEVICE_CONDITION = UNKNOWN: Y (100.0/27.0)
|   |   |   |   |   |   |   |   |   |   DEVICE_CONDITION = OTHER
|   |   |   |   |   |   |   |   |   |   |   NUM_UNITS = 2 Units
|   |   |   |   |   |   |   |   |   |   |   |   REPORT_TYPE = ON SCENE: N (9.0/2.0)
|   |   |   |   |   |   |   |   |   |   |   |   REPORT_TYPE = NOT ON SCENE (DESK REPORT): Y (7.0/2.0)
|   |   |   |   |   |   |   |   |   |   |   |   REPORT_TYPE = AMENDED: N (0.0)
|   |   |   |   |   |   |   |   |   |   |   NUM_UNITS = 1 Unit: N (0.0)
|   |   |   |   |   |   |   |   |   |   |   NUM_UNITS = 3+ Units: Y (2.0)
|   |   |   |   |   |   |   |   |   |   DEVICE_CONDITION = FUNCTIONING IMPROPERLY: Y (0.0)
|   |   |   |   |   |   |   |   |   |   DEVICE_CONDITION = NOT FUNCTIONING
|   |   |   |   |   |   |   |   |   |   |   ROADWAY_SURFACE_COND = DRY: Y (8.0)
|   |   |   |   |   |   |   |   |   |   |   ROADWAY_SURFACE_COND = WET: N (2.0)
|   |   |   |   |   |   |   |   |   |   |   ROADWAY_SURFACE_COND = SNOW OR SLUSH: Y (0.0)
|   |   |   |   |   |   |   |   |   |   |   ROADWAY_SURFACE_COND = UNKNOWN: Y (0.0)
|   |   |   |   |   |   |   |   |   |   |   ROADWAY_SURFACE_COND = ICE: Y (0.0)
|   |   |   |   |   |   |   |   |   |   |   ROADWAY_SURFACE_COND = OTHER: Y (0.0)
|   |   |   |   |   |   |   |   |   |   |   ROADWAY_SURFACE_COND = SAND, MUD, DIRT: Y (0.0)
|   |   |   |   |   |   |   |   |   |   DEVICE_CONDITION = WORN REFLECTIVE MATERIAL: Y (0.0)
|   |   |   |   |   |   |   |   |   |   DEVICE_CONDITION = MISSING: Y (0.0)
|   |   |   |   |   |   |   |   |   POSTED_SPEED_LIMIT = 2. 30-60
|   |   |   |   |   |   |   |   |   |   WEATHER_CONDITION = CLEAR
|   |   |   |   |   |   |   |   |   |   |   CRASH_DAY_OF_WEEK <= 2: N (19.0/7.0)
|   |   |   |   |   |   |   |   |   |   |   CRASH_DAY_OF_WEEK > 2: Y (43.0/12.0)
|   |   |   |   |   |   |   |   |   |   WEATHER_CONDITION = RAIN
|   |   |   |   |   |   |   |   |   |   |   CRASH_HOUR = 3. 17-24: Y (2.0)
|   |   |   |   |   |   |   |   |   |   |   CRASH_HOUR = 2. 9-16: N (2.0)
|   |   |   |   |   |   |   |   |   |   |   CRASH_HOUR = 1. 0-8: N (0.0)
|   |   |   |   |   |   |   |   |   |   WEATHER_CONDITION = CLOUDY/OVERCAST: Y (2.0)
|   |   |   |   |   |   |   |   |   |   WEATHER_CONDITION = UNKNOWN: N (3.0)
|   |   |   |   |   |   |   |   |   |   WEATHER_CONDITION = SNOW
|   |   |   |   |   |   |   |   |   |   |   CRASH_HOUR = 3. 17-24: N (1.0)
|   |   |   |   |   |   |   |   |   |   |   CRASH_HOUR = 2. 9-16: N (3.0)
|   |   |   |   |   |   |   |   |   |   |   CRASH_HOUR = 1. 0-8: Y (2.0)
|   |   |   |   |   |   |   |   |   |   WEATHER_CONDITION = SLEET/HAIL: N (1.0)
|   |   |   |   |   |   |   |   |   |   WEATHER_CONDITION = FOG/SMOKE/HAZE: Y (0.0)
|   |   |   |   |   |   |   |   |   |   WEATHER_CONDITION = FREEZING RAIN/DRIZZLE: Y (0.0)
|   |   |   |   |   |   |   |   |   |   WEATHER_CONDITION = SEVERE CROSS WIND GATE: Y (0.0)
|   |   |   |   |   |   |   |   |   |   WEATHER_CONDITION = OTHER: Y (0.0)
|   |   |   |   |   |   |   |   |   |   WEATHER_CONDITION = BLOWING SNOW: Y (0.0)
|   |   |   |   |   |   |   |   |   |   WEATHER_CONDITION = BLOWING SAND, SOIL, DIRT: Y (0.0)
|   |   |   |   |   |   |   |   |   POSTED_SPEED_LIMIT = 3. 60: Y (0.0)
|   |   |   |   |   |   |   |   TRAFFICWAY_TYPE = NOT DIVIDED
|   |   |   |   |   |   |   |   |   TRAFFIC_CONTROL_DEVICE = NO CONTROLS
|   |   |   |   |   |   |   |   |   |   CRASH_TYPE = NO INJURY / DRIVE AWAY
|   |   |   |   |   |   |   |   |   |   |   ALIGNMENT = STRAIGHT AND LEVEL: Y (4136.0/1657.0)
|   |   |   |   |   |   |   |   |   |   |   ALIGNMENT = STRAIGHT ON GRADE
|   |   |   |   |   |   |   |   |   |   |   |   WEEKEND = N
|   |   |   |   |   |   |   |   |   |   |   |   |   CRASH_DAY_OF_WEEK <= 2: N (3.0/1.0)
|   |   |   |   |   |   |   |   |   |   |   |   |   CRASH_DAY_OF_WEEK > 2: Y (9.0)
|   |   |   |   |   |   |   |   |   |   |   |   WEEKEND = Y: N (9.0/1.0)
|   |   |   |   |   |   |   |   |   |   |   ALIGNMENT = CURVE, LEVEL
|   |   |   |   |   |   |   |   |   |   |   |   WEEKEND = N: Y (8.0/2.0)
|   |   |   |   |   |   |   |   |   |   |   |   WEEKEND = Y: N (2.0)
|   |   |   |   |   |   |   |   |   |   |   ALIGNMENT = CURVE ON GRADE: N (2.0/1.0)
|   |   |   |   |   |   |   |   |   |   |   ALIGNMENT = STRAIGHT ON HILLCREST: N (2.0/1.0)
|   |   |   |   |   |   |   |   |   |   |   ALIGNMENT = CURVE ON HILLCREST: Y (1.0)
|   |   |   |   |   |   |   |   |   |   CRASH_TYPE = INJURY AND / OR TOW DUE TO CRASH
|   |   |   |   |   |   |   |   |   |   |   DEVICE_CONDITION = NO CONTROLS
|   |   |   |   |   |   |   |   |   |   |   |   ROAD_DEFECT = NO DEFECTS
|   |   |   |   |   |   |   |   |   |   |   |   |   ALIGNMENT = STRAIGHT AND LEVEL
|   |   |   |   |   |   |   |   |   |   |   |   |   |   REPORT_TYPE = ON SCENE
|   |   |   |   |   |   |   |   |   |   |   |   |   |   |   WEATHER_CONDITION = CLEAR
|   |   |   |   |   |   |   |   |   |   |   |   |   |   |   |   ROADWAY_SURFACE_COND = DRY
|   |   |   |   |   |   |   |   |   |   |   |   |   |   |   |   |   POSTED_SPEED_LIMIT = 1. 30
|   |   |   |   |   |   |   |   |   |   |   |   |   |   |   |   |   |   NUM_UNITS = 2 Units
|   |   |   |   |   |   |   |   |   |   |   |   |   |   |   |   |   |   |   WEEKEND = N
|   |   |   |   |   |   |   |   |   |   |   |   |   |   |   |   |   |   |   |   CRASH_HOUR = 3. 17-24: Y (17.0/7.0)
|   |   |   |   |   |   |   |   |   |   |   |   |   |   |   |   |   |   |   |   CRASH_HOUR = 2. 9-16: N (101.64/40.82)
|   |   |   |   |   |   |   |   |   |   |   |   |   |   |   |   |   |   |   |   CRASH_HOUR = 1. 0-8
|   |   |   |   |   |   |   |   |   |   |   |   |   |   |   |   |   |   |   |   |   CRASH_DAY_OF_WEEK <= 4: N (16.91/6.91)
|   |   |   |   |   |   |   |   |   |   |   |   |   |   |   |   |   |   |   |   |   CRASH_DAY_OF_WEEK > 4: Y (13.91/2.0)
|   |   |   |   |   |   |   |   |   |   |   |   |   |   |   |   |   |   |   WEEKEND = Y: Y (74.73/27.91)
|   |   |   |   |   |   |   |   |   |   |   |   |   |   |   |   |   |   NUM_UNITS = 1 Unit: N (0.0)
|   |   |   |   |   |   |   |   |   |   |   |   |   |   |   |   |   |   NUM_UNITS = 3+ Units
|   |   |   |   |   |   |   |   |   |   |   |   |   |   |   |   |   |   |   CRASH_HOUR = 3. 17-24: N (22.82/7.82)
|   |   |   |   |   |   |   |   |   |   |   |   |   |   |   |   |   |   |   CRASH_HOUR = 2. 9-16
|   |   |   |   |   |   |   |   |   |   |   |   |   |   |   |   |   |   |   |   CRASH_DAY_OF_WEEK <= 6: Y (49.91/22.0)
|   |   |   |   |   |   |   |   |   |   |   |   |   |   |   |   |   |   |   |   CRASH_DAY_OF_WEEK > 6: N (11.0/2.0)
|   |   |   |   |   |   |   |   |   |   |   |   |   |   |   |   |   |   |   CRASH_HOUR = 1. 0-8: N (37.82/13.91)
|   |   |   |   |   |   |   |   |   |   |   |   |   |   |   |   |   POSTED_SPEED_LIMIT = 2. 30-60: N (18.91/4.91)
|   |   |   |   |   |   |   |   |   |   |   |   |   |   |   |   |   POSTED_SPEED_LIMIT = 3. 60: N (0.0)
|   |   |   |   |   |   |   |   |   |   |   |   |   |   |   |   ROADWAY_SURFACE_COND = WET
|   |   |   |   |   |   |   |   |   |   |   |   |   |   |   |   |   CRASH_HOUR = 3. 17-24: N (2.0/1.0)
|   |   |   |   |   |   |   |   |   |   |   |   |   |   |   |   |   CRASH_HOUR = 2. 9-16: N (7.0/2.0)
|   |   |   |   |   |   |   |   |   |   |   |   |   |   |   |   |   CRASH_HOUR = 1. 0-8: Y (4.0/1.0)
|   |   |   |   |   |   |   |   |   |   |   |   |   |   |   |   ROADWAY_SURFACE_COND = SNOW OR SLUSH: Y (8.0/1.0)
|   |   |   |   |   |   |   |   |   |   |   |   |   |   |   |   ROADWAY_SURFACE_COND = UNKNOWN: Y (1.0)
|   |   |   |   |   |   |   |   |   |   |   |   |   |   |   |   ROADWAY_SURFACE_COND = ICE: N (0.0)
|   |   |   |   |   |   |   |   |   |   |   |   |   |   |   |   ROADWAY_SURFACE_COND = OTHER: N (1.0)
|   |   |   |   |   |   |   |   |   |   |   |   |   |   |   |   ROADWAY_SURFACE_COND = SAND, MUD, DIRT: N (0.0)
|   |   |   |   |   |   |   |   |   |   |   |   |   |   |   WEATHER_CONDITION = RAIN
|   |   |   |   |   |   |   |   |   |   |   |   |   |   |   |   POSTED_SPEED_LIMIT = 1. 30
|   |   |   |   |   |   |   |   |   |   |   |   |   |   |   |   |   CRASH_HOUR = 3. 17-24: N (1.0)
|   |   |   |   |   |   |   |   |   |   |   |   |   |   |   |   |   CRASH_HOUR = 2. 9-16: Y (26.82/10.0)
|   |   |   |   |   |   |   |   |   |   |   |   |   |   |   |   |   CRASH_HOUR = 1. 0-8: N (7.0/2.0)
|   |   |   |   |   |   |   |   |   |   |   |   |   |   |   |   POSTED_SPEED_LIMIT = 2. 30-60: Y (2.0)
|   |   |   |   |   |   |   |   |   |   |   |   |   |   |   |   POSTED_SPEED_LIMIT = 3. 60: Y (0.0)
|   |   |   |   |   |   |   |   |   |   |   |   |   |   |   WEATHER_CONDITION = CLOUDY/OVERCAST: Y (18.73/8.0)
|   |   |   |   |   |   |   |   |   |   |   |   |   |   |   WEATHER_CONDITION = UNKNOWN: Y (3.0/1.0)
|   |   |   |   |   |   |   |   |   |   |   |   |   |   |   WEATHER_CONDITION = SNOW
|   |   |   |   |   |   |   |   |   |   |   |   |   |   |   |   CRASH_HOUR = 3. 17-24: Y (0.0)
|   |   |   |   |   |   |   |   |   |   |   |   |   |   |   |   CRASH_HOUR = 2. 9-16
|   |   |   |   |   |   |   |   |   |   |   |   |   |   |   |   |   WEEKEND = N
|   |   |   |   |   |   |   |   |   |   |   |   |   |   |   |   |   |   CRASH_DAY_OF_WEEK <= 4: Y (4.0)
|   |   |   |   |   |   |   |   |   |   |   |   |   |   |   |   |   |   CRASH_DAY_OF_WEEK > 4: N (4.0/1.0)
|   |   |   |   |   |   |   |   |   |   |   |   |   |   |   |   |   WEEKEND = Y: Y (5.0)
|   |   |   |   |   |   |   |   |   |   |   |   |   |   |   |   CRASH_HOUR = 1. 0-8: N (5.0/2.0)
|   |   |   |   |   |   |   |   |   |   |   |   |   |   |   WEATHER_CONDITION = SLEET/HAIL: N (1.0)
|   |   |   |   |   |   |   |   |   |   |   |   |   |   |   WEATHER_CONDITION = FOG/SMOKE/HAZE: N (0.0)
|   |   |   |   |   |   |   |   |   |   |   |   |   |   |   WEATHER_CONDITION = FREEZING RAIN/DRIZZLE: N (0.0)
|   |   |   |   |   |   |   |   |   |   |   |   |   |   |   WEATHER_CONDITION = SEVERE CROSS WIND GATE: N (0.0)
|   |   |   |   |   |   |   |   |   |   |   |   |   |   |   WEATHER_CONDITION = OTHER: Y (1.0)
|   |   |   |   |   |   |   |   |   |   |   |   |   |   |   WEATHER_CONDITION = BLOWING SNOW: N (1.0)
|   |   |   |   |   |   |   |   |   |   |   |   |   |   |   WEATHER_CONDITION = BLOWING SAND, SOIL, DIRT: N (0.0)
|   |   |   |   |   |   |   |   |   |   |   |   |   |   REPORT_TYPE = NOT ON SCENE (DESK REPORT): Y (45.78/14.36)
|   |   |   |   |   |   |   |   |   |   |   |   |   |   REPORT_TYPE = AMENDED: Y (1.04/0.01)
|   |   |   |   |   |   |   |   |   |   |   |   |   ALIGNMENT = STRAIGHT ON GRADE
|   |   |   |   |   |   |   |   |   |   |   |   |   |   WEATHER_CONDITION = CLEAR
|   |   |   |   |   |   |   |   |   |   |   |   |   |   |   CRASH_DAY_OF_WEEK <= 2: N (2.0)
|   |   |   |   |   |   |   |   |   |   |   |   |   |   |   CRASH_DAY_OF_WEEK > 2: Y (7.0/1.0)
|   |   |   |   |   |   |   |   |   |   |   |   |   |   WEATHER_CONDITION = RAIN: Y (0.0)
|   |   |   |   |   |   |   |   |   |   |   |   |   |   WEATHER_CONDITION = CLOUDY/OVERCAST: N (2.0)
|   |   |   |   |   |   |   |   |   |   |   |   |   |   WEATHER_CONDITION = UNKNOWN: Y (0.0)
|   |   |   |   |   |   |   |   |   |   |   |   |   |   WEATHER_CONDITION = SNOW: Y (0.0)
|   |   |   |   |   |   |   |   |   |   |   |   |   |   WEATHER_CONDITION = SLEET/HAIL: Y (0.0)
|   |   |   |   |   |   |   |   |   |   |   |   |   |   WEATHER_CONDITION = FOG/SMOKE/HAZE: Y (0.0)
|   |   |   |   |   |   |   |   |   |   |   |   |   |   WEATHER_CONDITION = FREEZING RAIN/DRIZZLE: Y (0.0)
|   |   |   |   |   |   |   |   |   |   |   |   |   |   WEATHER_CONDITION = SEVERE CROSS WIND GATE: Y (0.0)
|   |   |   |   |   |   |   |   |   |   |   |   |   |   WEATHER_CONDITION = OTHER: Y (0.0)
|   |   |   |   |   |   |   |   |   |   |   |   |   |   WEATHER_CONDITION = BLOWING SNOW: Y (0.0)
|   |   |   |   |   |   |   |   |   |   |   |   |   |   WEATHER_CONDITION = BLOWING SAND, SOIL, DIRT: Y (0.0)
|   |   |   |   |   |   |   |   |   |   |   |   |   ALIGNMENT = CURVE, LEVEL
|   |   |   |   |   |   |   |   |   |   |   |   |   |   WEEKEND = N: Y (2.0)
|   |   |   |   |   |   |   |   |   |   |   |   |   |   WEEKEND = Y: N (3.0)
|   |   |   |   |   |   |   |   |   |   |   |   |   ALIGNMENT = CURVE ON GRADE: Y (0.0)
|   |   |   |   |   |   |   |   |   |   |   |   |   ALIGNMENT = STRAIGHT ON HILLCREST: Y (2.0)
|   |   |   |   |   |   |   |   |   |   |   |   |   ALIGNMENT = CURVE ON HILLCREST: Y (1.0)
|   |   |   |   |   |   |   |   |   |   |   |   ROAD_DEFECT = UNKNOWN
|   |   |   |   |   |   |   |   |   |   |   |   |   CRASH_HOUR = 3. 17-24: N (11.0/3.0)
|   |   |   |   |   |   |   |   |   |   |   |   |   CRASH_HOUR = 2. 9-16: N (38.0/14.0)
|   |   |   |   |   |   |   |   |   |   |   |   |   CRASH_HOUR = 1. 0-8
|   |   |   |   |   |   |   |   |   |   |   |   |   |   WEEKEND = N
|   |   |   |   |   |   |   |   |   |   |   |   |   |   |   CRASH_DAY_OF_WEEK <= 4: Y (7.0/1.0)
|   |   |   |   |   |   |   |   |   |   |   |   |   |   |   CRASH_DAY_OF_WEEK > 4: N (2.0)
|   |   |   |   |   |   |   |   |   |   |   |   |   |   WEEKEND = Y: Y (2.0)
|   |   |   |   |   |   |   |   |   |   |   |   ROAD_DEFECT = RUT, HOLES: N (2.0)
|   |   |   |   |   |   |   |   |   |   |   |   ROAD_DEFECT = SHOULDER DEFECT: Y (1.0)
|   |   |   |   |   |   |   |   |   |   |   |   ROAD_DEFECT = OTHER: N (1.0)
|   |   |   |   |   |   |   |   |   |   |   |   ROAD_DEFECT = WORN SURFACE: N (2.0)
|   |   |   |   |   |   |   |   |   |   |   |   ROAD_DEFECT = DEBRIS ON ROADWAY: Y (0.0)
|   |   |   |   |   |   |   |   |   |   |   DEVICE_CONDITION = FUNCTIONING PROPERLY: N (7.0/2.0)
|   |   |   |   |   |   |   |   |   |   |   DEVICE_CONDITION = UNKNOWN: N (9.0/2.0)
|   |   |   |   |   |   |   |   |   |   |   DEVICE_CONDITION = OTHER: Y (1.0)
|   |   |   |   |   |   |   |   |   |   |   DEVICE_CONDITION = FUNCTIONING IMPROPERLY: Y (1.0)
|   |   |   |   |   |   |   |   |   |   |   DEVICE_CONDITION = NOT FUNCTIONING: Y (2.0)
|   |   |   |   |   |   |   |   |   |   |   DEVICE_CONDITION = WORN REFLECTIVE MATERIAL: Y (0.0)
|   |   |   |   |   |   |   |   |   |   |   DEVICE_CONDITION = MISSING: Y (0.0)
|   |   |   |   |   |   |   |   |   TRAFFIC_CONTROL_DEVICE = STOP SIGN/FLASHER
|   |   |   |   |   |   |   |   |   |   ROADWAY_SURFACE_COND = DRY: Y (105.0/46.0)
|   |   |   |   |   |   |   |   |   |   ROADWAY_SURFACE_COND = WET: N (6.0/1.0)
|   |   |   |   |   |   |   |   |   |   ROADWAY_SURFACE_COND = SNOW OR SLUSH: N (4.0/2.0)
|   |   |   |   |   |   |   |   |   |   ROADWAY_SURFACE_COND = UNKNOWN: Y (1.0)
|   |   |   |   |   |   |   |   |   |   ROADWAY_SURFACE_COND = ICE: N (1.0)
|   |   |   |   |   |   |   |   |   |   ROADWAY_SURFACE_COND = OTHER: Y (0.0)
|   |   |   |   |   |   |   |   |   |   ROADWAY_SURFACE_COND = SAND, MUD, DIRT: Y (0.0)
|   |   |   |   |   |   |   |   |   TRAFFIC_CONTROL_DEVICE = TRAFFIC SIGNAL
|   |   |   |   |   |   |   |   |   |   CRASH_HOUR = 3. 17-24: Y (15.0/5.0)
|   |   |   |   |   |   |   |   |   |   CRASH_HOUR = 2. 9-16
|   |   |   |   |   |   |   |   |   |   |   REPORT_TYPE = ON SCENE: N (38.44/14.0)
|   |   |   |   |   |   |   |   |   |   |   REPORT_TYPE = NOT ON SCENE (DESK REPORT)
|   |   |   |   |   |   |   |   |   |   |   |   ROAD_DEFECT = NO DEFECTS: Y (36.56/17.56)
|   |   |   |   |   |   |   |   |   |   |   |   ROAD_DEFECT = UNKNOWN
|   |   |   |   |   |   |   |   |   |   |   |   |   WEEKEND = N: N (8.0)
|   |   |   |   |   |   |   |   |   |   |   |   |   WEEKEND = Y: Y (4.0)
|   |   |   |   |   |   |   |   |   |   |   |   ROAD_DEFECT = RUT, HOLES: N (0.0)
|   |   |   |   |   |   |   |   |   |   |   |   ROAD_DEFECT = SHOULDER DEFECT: N (0.0)
|   |   |   |   |   |   |   |   |   |   |   |   ROAD_DEFECT = OTHER: N (0.0)
|   |   |   |   |   |   |   |   |   |   |   |   ROAD_DEFECT = WORN SURFACE: N (1.0)
|   |   |   |   |   |   |   |   |   |   |   |   ROAD_DEFECT = DEBRIS ON ROADWAY: N (0.0)
|   |   |   |   |   |   |   |   |   |   |   REPORT_TYPE = AMENDED: N (0.0)
|   |   |   |   |   |   |   |   |   |   CRASH_HOUR = 1. 0-8
|   |   |   |   |   |   |   |   |   |   |   CRASH_DAY_OF_WEEK <= 1: Y (3.0)
|   |   |   |   |   |   |   |   |   |   |   CRASH_DAY_OF_WEEK > 1: N (17.0/6.0)
|   |   |   |   |   |   |   |   |   TRAFFIC_CONTROL_DEVICE = OTHER: N (8.0/3.0)
|   |   |   |   |   |   |   |   |   TRAFFIC_CONTROL_DEVICE = PEDESTRIAN CROSSING SIGN: Y (0.0)
|   |   |   |   |   |   |   |   |   TRAFFIC_CONTROL_DEVICE = UNKNOWN: Y (141.0/51.0)
|   |   |   |   |   |   |   |   |   TRAFFIC_CONTROL_DEVICE = YIELD: N (2.0/1.0)
|   |   |   |   |   |   |   |   |   TRAFFIC_CONTROL_DEVICE = OTHER REG. SIGN: Y (0.0)
|   |   |   |   |   |   |   |   |   TRAFFIC_CONTROL_DEVICE = LANE USE MARKING: N (4.0/2.0)
|   |   |   |   |   |   |   |   |   TRAFFIC_CONTROL_DEVICE = FLASHING CONTROL SIGNAL: Y (0.0)
|   |   |   |   |   |   |   |   |   TRAFFIC_CONTROL_DEVICE = OTHER WARNING SIGN: N (2.0/1.0)
|   |   |   |   |   |   |   |   |   TRAFFIC_CONTROL_DEVICE = DELINEATORS: N (2.0)
|   |   |   |   |   |   |   |   |   TRAFFIC_CONTROL_DEVICE = SCHOOL ZONE: N (2.0)
|   |   |   |   |   |   |   |   |   TRAFFIC_CONTROL_DEVICE = POLICE/FLAGMAN: Y (0.0)
|   |   |   |   |   |   |   |   |   TRAFFIC_CONTROL_DEVICE = RAILROAD CROSSING GATE: Y (0.0)
|   |   |   |   |   |   |   |   |   TRAFFIC_CONTROL_DEVICE = OTHER RAILROAD CROSSING: Y (0.0)
|   |   |   |   |   |   |   |   |   TRAFFIC_CONTROL_DEVICE = NO PASSING: Y (0.0)
|   |   |   |   |   |   |   |   |   TRAFFIC_CONTROL_DEVICE = RR CROSSING SIGN: Y (0.0)
|   |   |   |   |   |   |   |   |   TRAFFIC_CONTROL_DEVICE = BICYCLE CROSSING SIGN: Y (0.0)
|   |   |   |   |   |   |   |   TRAFFICWAY_TYPE = DIVIDED - W/MEDIAN BARRIER
|   |   |   |   |   |   |   |   |   DEVICE_CONDITION = NO CONTROLS
|   |   |   |   |   |   |   |   |   |   ROADWAY_SURFACE_COND = DRY
|   |   |   |   |   |   |   |   |   |   |   WEATHER_CONDITION = CLEAR
|   |   |   |   |   |   |   |   |   |   |   |   ROAD_DEFECT = NO DEFECTS
|   |   |   |   |   |   |   |   |   |   |   |   |   CRASH_TYPE = NO INJURY / DRIVE AWAY
|   |   |   |   |   |   |   |   |   |   |   |   |   |   CRASH_HOUR = 3. 17-24: Y (15.0/5.0)
|   |   |   |   |   |   |   |   |   |   |   |   |   |   CRASH_HOUR = 2. 9-16
|   |   |   |   |   |   |   |   |   |   |   |   |   |   |   NUM_UNITS = 2 Units
|   |   |   |   |   |   |   |   |   |   |   |   |   |   |   |   REPORT_TYPE = ON SCENE: N (25.36/9.36)
|   |   |   |   |   |   |   |   |   |   |   |   |   |   |   |   REPORT_TYPE = NOT ON SCENE (DESK REPORT)
|   |   |   |   |   |   |   |   |   |   |   |   |   |   |   |   |   WEEKEND = N: Y (38.0/15.0)
|   |   |   |   |   |   |   |   |   |   |   |   |   |   |   |   |   WEEKEND = Y: N (7.64/2.64)
|   |   |   |   |   |   |   |   |   |   |   |   |   |   |   |   REPORT_TYPE = AMENDED: N (0.0)
|   |   |   |   |   |   |   |   |   |   |   |   |   |   |   NUM_UNITS = 1 Unit: Y (0.0)
|   |   |   |   |   |   |   |   |   |   |   |   |   |   |   NUM_UNITS = 3+ Units: Y (4.0/1.0)
|   |   |   |   |   |   |   |   |   |   |   |   |   |   CRASH_HOUR = 1. 0-8: Y (6.0/1.0)
|   |   |   |   |   |   |   |   |   |   |   |   |   CRASH_TYPE = INJURY AND / OR TOW DUE TO CRASH: N (26.0/9.0)
|   |   |   |   |   |   |   |   |   |   |   |   ROAD_DEFECT = UNKNOWN
|   |   |   |   |   |   |   |   |   |   |   |   |   WEEKEND = N: N (14.0/4.0)
|   |   |   |   |   |   |   |   |   |   |   |   |   WEEKEND = Y: Y (4.0/1.0)
|   |   |   |   |   |   |   |   |   |   |   |   ROAD_DEFECT = RUT, HOLES: N (0.0)
|   |   |   |   |   |   |   |   |   |   |   |   ROAD_DEFECT = SHOULDER DEFECT: Y (1.0)
|   |   |   |   |   |   |   |   |   |   |   |   ROAD_DEFECT = OTHER: N (0.0)
|   |   |   |   |   |   |   |   |   |   |   |   ROAD_DEFECT = WORN SURFACE: Y (1.0)
|   |   |   |   |   |   |   |   |   |   |   |   ROAD_DEFECT = DEBRIS ON ROADWAY: N (0.0)
|   |   |   |   |   |   |   |   |   |   |   WEATHER_CONDITION = RAIN: N (0.0)
|   |   |   |   |   |   |   |   |   |   |   WEATHER_CONDITION = CLOUDY/OVERCAST: N (6.0/2.0)
|   |   |   |   |   |   |   |   |   |   |   WEATHER_CONDITION = UNKNOWN: Y (1.0)
|   |   |   |   |   |   |   |   |   |   |   WEATHER_CONDITION = SNOW: N (0.0)
|   |   |   |   |   |   |   |   |   |   |   WEATHER_CONDITION = SLEET/HAIL: N (0.0)
|   |   |   |   |   |   |   |   |   |   |   WEATHER_CONDITION = FOG/SMOKE/HAZE: N (0.0)
|   |   |   |   |   |   |   |   |   |   |   WEATHER_CONDITION = FREEZING RAIN/DRIZZLE: N (0.0)
|   |   |   |   |   |   |   |   |   |   |   WEATHER_CONDITION = SEVERE CROSS WIND GATE: N (0.0)
|   |   |   |   |   |   |   |   |   |   |   WEATHER_CONDITION = OTHER: N (0.0)
|   |   |   |   |   |   |   |   |   |   |   WEATHER_CONDITION = BLOWING SNOW: N (0.0)
|   |   |   |   |   |   |   |   |   |   |   WEATHER_CONDITION = BLOWING SAND, SOIL, DIRT: N (0.0)
|   |   |   |   |   |   |   |   |   |   ROADWAY_SURFACE_COND = WET
|   |   |   |   |   |   |   |   |   |   |   WEATHER_CONDITION = CLEAR: Y (6.0/1.0)
|   |   |   |   |   |   |   |   |   |   |   WEATHER_CONDITION = RAIN: N (9.0/4.0)
|   |   |   |   |   |   |   |   |   |   |   WEATHER_CONDITION = CLOUDY/OVERCAST: Y (0.0)
|   |   |   |   |   |   |   |   |   |   |   WEATHER_CONDITION = UNKNOWN: N (1.0)
|   |   |   |   |   |   |   |   |   |   |   WEATHER_CONDITION = SNOW: Y (0.0)
|   |   |   |   |   |   |   |   |   |   |   WEATHER_CONDITION = SLEET/HAIL: Y (0.0)
|   |   |   |   |   |   |   |   |   |   |   WEATHER_CONDITION = FOG/SMOKE/HAZE: Y (0.0)
|   |   |   |   |   |   |   |   |   |   |   WEATHER_CONDITION = FREEZING RAIN/DRIZZLE: Y (0.0)
|   |   |   |   |   |   |   |   |   |   |   WEATHER_CONDITION = SEVERE CROSS WIND GATE: Y (0.0)
|   |   |   |   |   |   |   |   |   |   |   WEATHER_CONDITION = OTHER: Y (0.0)
|   |   |   |   |   |   |   |   |   |   |   WEATHER_CONDITION = BLOWING SNOW: Y (0.0)
|   |   |   |   |   |   |   |   |   |   |   WEATHER_CONDITION = BLOWING SAND, SOIL, DIRT: Y (0.0)
|   |   |   |   |   |   |   |   |   |   ROADWAY_SURFACE_COND = SNOW OR SLUSH: Y (4.0/1.0)
|   |   |   |   |   |   |   |   |   |   ROADWAY_SURFACE_COND = UNKNOWN: Y (5.0)
|   |   |   |   |   |   |   |   |   |   ROADWAY_SURFACE_COND = ICE: Y (0.0)
|   |   |   |   |   |   |   |   |   |   ROADWAY_SURFACE_COND = OTHER: Y (0.0)
|   |   |   |   |   |   |   |   |   |   ROADWAY_SURFACE_COND = SAND, MUD, DIRT: Y (0.0)
|   |   |   |   |   |   |   |   |   DEVICE_CONDITION = FUNCTIONING PROPERLY
|   |   |   |   |   |   |   |   |   |   WEEKEND = N: N (11.0/2.0)
|   |   |   |   |   |   |   |   |   |   WEEKEND = Y: Y (6.0/1.0)
|   |   |   |   |   |   |   |   |   DEVICE_CONDITION = UNKNOWN: N (7.0/1.0)
|   |   |   |   |   |   |   |   |   DEVICE_CONDITION = OTHER: Y (0.0)
|   |   |   |   |   |   |   |   |   DEVICE_CONDITION = FUNCTIONING IMPROPERLY: Y (0.0)
|   |   |   |   |   |   |   |   |   DEVICE_CONDITION = NOT FUNCTIONING: Y (2.0)
|   |   |   |   |   |   |   |   |   DEVICE_CONDITION = WORN REFLECTIVE MATERIAL: Y (0.0)
|   |   |   |   |   |   |   |   |   DEVICE_CONDITION = MISSING: Y (0.0)
|   |   |   |   |   |   |   |   TRAFFICWAY_TYPE = PARKING LOT
|   |   |   |   |   |   |   |   |   NUM_UNITS = 2 Units: Y (1772.0/689.0)
|   |   |   |   |   |   |   |   |   NUM_UNITS = 1 Unit: Y (0.0)
|   |   |   |   |   |   |   |   |   NUM_UNITS = 3+ Units
|   |   |   |   |   |   |   |   |   |   WEATHER_CONDITION = CLEAR: N (28.0/7.0)
|   |   |   |   |   |   |   |   |   |   WEATHER_CONDITION = RAIN: Y (4.0/1.0)
|   |   |   |   |   |   |   |   |   |   WEATHER_CONDITION = CLOUDY/OVERCAST: N (0.0)
|   |   |   |   |   |   |   |   |   |   WEATHER_CONDITION = UNKNOWN: N (0.0)
|   |   |   |   |   |   |   |   |   |   WEATHER_CONDITION = SNOW: Y (1.0)
|   |   |   |   |   |   |   |   |   |   WEATHER_CONDITION = SLEET/HAIL: N (0.0)
|   |   |   |   |   |   |   |   |   |   WEATHER_CONDITION = FOG/SMOKE/HAZE: N (0.0)
|   |   |   |   |   |   |   |   |   |   WEATHER_CONDITION = FREEZING RAIN/DRIZZLE: N (0.0)
|   |   |   |   |   |   |   |   |   |   WEATHER_CONDITION = SEVERE CROSS WIND GATE: N (0.0)
|   |   |   |   |   |   |   |   |   |   WEATHER_CONDITION = OTHER: N (0.0)
|   |   |   |   |   |   |   |   |   |   WEATHER_CONDITION = BLOWING SNOW: N (0.0)
|   |   |   |   |   |   |   |   |   |   WEATHER_CONDITION = BLOWING SAND, SOIL, DIRT: N (0.0)
|   |   |   |   |   |   |   |   TRAFFICWAY_TYPE = DIVIDED - W/MEDIAN (NOT RAISED)
|   |   |   |   |   |   |   |   |   WEATHER_CONDITION = CLEAR
|   |   |   |   |   |   |   |   |   |   REPORT_TYPE = ON SCENE
|   |   |   |   |   |   |   |   |   |   |   TRAFFIC_CONTROL_DEVICE = NO CONTROLS
|   |   |   |   |   |   |   |   |   |   |   |   POSTED_SPEED_LIMIT = 1. 30
|   |   |   |   |   |   |   |   |   |   |   |   |   NUM_UNITS = 2 Units
|   |   |   |   |   |   |   |   |   |   |   |   |   |   CRASH_HOUR = 3. 17-24
|   |   |   |   |   |   |   |   |   |   |   |   |   |   |   CRASH_DAY_OF_WEEK <= 2: N (7.0/2.0)
|   |   |   |   |   |   |   |   |   |   |   |   |   |   |   CRASH_DAY_OF_WEEK > 2: Y (15.02/4.34)
|   |   |   |   |   |   |   |   |   |   |   |   |   |   CRASH_HOUR = 2. 9-16
|   |   |   |   |   |   |   |   |   |   |   |   |   |   |   CRASH_DAY_OF_WEEK <= 3: Y (62.36/24.34)
|   |   |   |   |   |   |   |   |   |   |   |   |   |   |   CRASH_DAY_OF_WEEK > 3: N (97.36/39.02)
|   |   |   |   |   |   |   |   |   |   |   |   |   |   CRASH_HOUR = 1. 0-8: Y (32.02/13.0)
|   |   |   |   |   |   |   |   |   |   |   |   |   NUM_UNITS = 1 Unit: Y (0.0)
|   |   |   |   |   |   |   |   |   |   |   |   |   NUM_UNITS = 3+ Units
|   |   |   |   |   |   |   |   |   |   |   |   |   |   CRASH_HOUR = 3. 17-24: Y (10.34/4.0)
|   |   |   |   |   |   |   |   |   |   |   |   |   |   CRASH_HOUR = 2. 9-16: Y (34.7/12.34)
|   |   |   |   |   |   |   |   |   |   |   |   |   |   CRASH_HOUR = 1. 0-8: N (7.0/2.0)
|   |   |   |   |   |   |   |   |   |   |   |   POSTED_SPEED_LIMIT = 2. 30-60
|   |   |   |   |   |   |   |   |   |   |   |   |   CRASH_DAY_OF_WEEK <= 3
|   |   |   |   |   |   |   |   |   |   |   |   |   |   CRASH_TYPE = NO INJURY / DRIVE AWAY: N (2.0)
|   |   |   |   |   |   |   |   |   |   |   |   |   |   CRASH_TYPE = INJURY AND / OR TOW DUE TO CRASH: Y (6.0/1.0)
|   |   |   |   |   |   |   |   |   |   |   |   |   CRASH_DAY_OF_WEEK > 3: N (11.0/3.0)
|   |   |   |   |   |   |   |   |   |   |   |   POSTED_SPEED_LIMIT = 3. 60: Y (0.0)
|   |   |   |   |   |   |   |   |   |   |   TRAFFIC_CONTROL_DEVICE = STOP SIGN/FLASHER
|   |   |   |   |   |   |   |   |   |   |   |   WEEKEND = N: N (6.0/1.0)
|   |   |   |   |   |   |   |   |   |   |   |   WEEKEND = Y: Y (4.0)
|   |   |   |   |   |   |   |   |   |   |   TRAFFIC_CONTROL_DEVICE = TRAFFIC SIGNAL
|   |   |   |   |   |   |   |   |   |   |   |   NUM_UNITS = 2 Units: N (15.34/5.0)
|   |   |   |   |   |   |   |   |   |   |   |   NUM_UNITS = 1 Unit: N (0.0)
|   |   |   |   |   |   |   |   |   |   |   |   NUM_UNITS = 3+ Units: Y (5.0/1.0)
|   |   |   |   |   |   |   |   |   |   |   TRAFFIC_CONTROL_DEVICE = OTHER
|   |   |   |   |   |   |   |   |   |   |   |   CRASH_DAY_OF_WEEK <= 3: N (2.0)
|   |   |   |   |   |   |   |   |   |   |   |   CRASH_DAY_OF_WEEK > 3: Y (4.0/1.0)
|   |   |   |   |   |   |   |   |   |   |   TRAFFIC_CONTROL_DEVICE = PEDESTRIAN CROSSING SIGN: Y (0.0)
|   |   |   |   |   |   |   |   |   |   |   TRAFFIC_CONTROL_DEVICE = UNKNOWN: N (14.0/4.0)
|   |   |   |   |   |   |   |   |   |   |   TRAFFIC_CONTROL_DEVICE = YIELD: Y (0.0)
|   |   |   |   |   |   |   |   |   |   |   TRAFFIC_CONTROL_DEVICE = OTHER REG. SIGN: N (1.0)
|   |   |   |   |   |   |   |   |   |   |   TRAFFIC_CONTROL_DEVICE = LANE USE MARKING: Y (0.0)
|   |   |   |   |   |   |   |   |   |   |   TRAFFIC_CONTROL_DEVICE = FLASHING CONTROL SIGNAL: Y (0.0)
|   |   |   |   |   |   |   |   |   |   |   TRAFFIC_CONTROL_DEVICE = OTHER WARNING SIGN: Y (0.0)
|   |   |   |   |   |   |   |   |   |   |   TRAFFIC_CONTROL_DEVICE = DELINEATORS: Y (0.0)
|   |   |   |   |   |   |   |   |   |   |   TRAFFIC_CONTROL_DEVICE = SCHOOL ZONE: Y (0.0)
|   |   |   |   |   |   |   |   |   |   |   TRAFFIC_CONTROL_DEVICE = POLICE/FLAGMAN: Y (0.0)
|   |   |   |   |   |   |   |   |   |   |   TRAFFIC_CONTROL_DEVICE = RAILROAD CROSSING GATE: Y (0.0)
|   |   |   |   |   |   |   |   |   |   |   TRAFFIC_CONTROL_DEVICE = OTHER RAILROAD CROSSING: Y (0.0)
|   |   |   |   |   |   |   |   |   |   |   TRAFFIC_CONTROL_DEVICE = NO PASSING: Y (0.0)
|   |   |   |   |   |   |   |   |   |   |   TRAFFIC_CONTROL_DEVICE = RR CROSSING SIGN: Y (0.0)
|   |   |   |   |   |   |   |   |   |   |   TRAFFIC_CONTROL_DEVICE = BICYCLE CROSSING SIGN: Y (0.0)
|   |   |   |   |   |   |   |   |   |   REPORT_TYPE = NOT ON SCENE (DESK REPORT): Y (649.83/262.29)
|   |   |   |   |   |   |   |   |   |   REPORT_TYPE = AMENDED: Y (1.02/0.01)
|   |   |   |   |   |   |   |   |   WEATHER_CONDITION = RAIN
|   |   |   |   |   |   |   |   |   |   NUM_UNITS = 2 Units
|   |   |   |   |   |   |   |   |   |   |   ROADWAY_SURFACE_COND = DRY: Y (5.0/1.0)
|   |   |   |   |   |   |   |   |   |   |   ROADWAY_SURFACE_COND = WET
|   |   |   |   |   |   |   |   |   |   |   |   CRASH_TYPE = NO INJURY / DRIVE AWAY
|   |   |   |   |   |   |   |   |   |   |   |   |   ROAD_DEFECT = NO DEFECTS: N (32.0/11.0)
|   |   |   |   |   |   |   |   |   |   |   |   |   ROAD_DEFECT = UNKNOWN
|   |   |   |   |   |   |   |   |   |   |   |   |   |   REPORT_TYPE = ON SCENE: N (4.0/1.0)
|   |   |   |   |   |   |   |   |   |   |   |   |   |   REPORT_TYPE = NOT ON SCENE (DESK REPORT): Y (10.0/2.0)
|   |   |   |   |   |   |   |   |   |   |   |   |   |   REPORT_TYPE = AMENDED: Y (0.0)
|   |   |   |   |   |   |   |   |   |   |   |   |   ROAD_DEFECT = RUT, HOLES: N (0.0)
|   |   |   |   |   |   |   |   |   |   |   |   |   ROAD_DEFECT = SHOULDER DEFECT: N (0.0)
|   |   |   |   |   |   |   |   |   |   |   |   |   ROAD_DEFECT = OTHER: N (0.0)
|   |   |   |   |   |   |   |   |   |   |   |   |   ROAD_DEFECT = WORN SURFACE: N (0.0)
|   |   |   |   |   |   |   |   |   |   |   |   |   ROAD_DEFECT = DEBRIS ON ROADWAY: N (0.0)
|   |   |   |   |   |   |   |   |   |   |   |   CRASH_TYPE = INJURY AND / OR TOW DUE TO CRASH: Y (5.0/1.0)
|   |   |   |   |   |   |   |   |   |   |   ROADWAY_SURFACE_COND = SNOW OR SLUSH: Y (1.0)
|   |   |   |   |   |   |   |   |   |   |   ROADWAY_SURFACE_COND = UNKNOWN: Y (1.0)
|   |   |   |   |   |   |   |   |   |   |   ROADWAY_SURFACE_COND = ICE: Y (0.0)
|   |   |   |   |   |   |   |   |   |   |   ROADWAY_SURFACE_COND = OTHER: Y (0.0)
|   |   |   |   |   |   |   |   |   |   |   ROADWAY_SURFACE_COND = SAND, MUD, DIRT: Y (0.0)
|   |   |   |   |   |   |   |   |   |   NUM_UNITS = 1 Unit: Y (0.0)
|   |   |   |   |   |   |   |   |   |   NUM_UNITS = 3+ Units: Y (9.0/1.0)
|   |   |   |   |   |   |   |   |   WEATHER_CONDITION = CLOUDY/OVERCAST: N (42.0/13.0)
|   |   |   |   |   |   |   |   |   WEATHER_CONDITION = UNKNOWN
|   |   |   |   |   |   |   |   |   |   CRASH_DAY_OF_WEEK <= 1: N (2.0)
|   |   |   |   |   |   |   |   |   |   CRASH_DAY_OF_WEEK > 1
|   |   |   |   |   |   |   |   |   |   |   CRASH_DAY_OF_WEEK <= 5: Y (26.0/2.0)
|   |   |   |   |   |   |   |   |   |   |   CRASH_DAY_OF_WEEK > 5
|   |   |   |   |   |   |   |   |   |   |   |   TRAFFIC_CONTROL_DEVICE = NO CONTROLS: N (3.0)
|   |   |   |   |   |   |   |   |   |   |   |   TRAFFIC_CONTROL_DEVICE = STOP SIGN/FLASHER: N (0.0)
|   |   |   |   |   |   |   |   |   |   |   |   TRAFFIC_CONTROL_DEVICE = TRAFFIC SIGNAL: N (0.0)
|   |   |   |   |   |   |   |   |   |   |   |   TRAFFIC_CONTROL_DEVICE = OTHER: N (0.0)
|   |   |   |   |   |   |   |   |   |   |   |   TRAFFIC_CONTROL_DEVICE = PEDESTRIAN CROSSING SIGN: N (0.0)
|   |   |   |   |   |   |   |   |   |   |   |   TRAFFIC_CONTROL_DEVICE = UNKNOWN: Y (4.0/1.0)
|   |   |   |   |   |   |   |   |   |   |   |   TRAFFIC_CONTROL_DEVICE = YIELD: N (0.0)
|   |   |   |   |   |   |   |   |   |   |   |   TRAFFIC_CONTROL_DEVICE = OTHER REG. SIGN: N (0.0)
|   |   |   |   |   |   |   |   |   |   |   |   TRAFFIC_CONTROL_DEVICE = LANE USE MARKING: N (0.0)
|   |   |   |   |   |   |   |   |   |   |   |   TRAFFIC_CONTROL_DEVICE = FLASHING CONTROL SIGNAL: N (0.0)
